<?xml version="1.0"?>
<MethodSetup Method="MLP::kMLP_99_reg_more">
  <GeneralInfo>
    <Info name="TMVA Release" value="4.2.0 [262656]"/>
    <Info name="ROOT Release" value="5.34/20 [336404]"/>
    <Info name="Creator" value="b0pan"/>
    <Info name="Date" value="Sat Nov 12 04:09:54 2016"/>
    <Info name="Host" value="Linux pdsf6 2.6.32-431.46.2.el6.nersc.x86_64 #1 SMP Thu Jan 22 09:48:18 PST 2015 x86_64 x86_64 x86_64 GNU/Linux"/>
    <Info name="Dir" value="/global/project/projectdirs/dayabay/scratch/b0pan/unified/script/MVA"/>
    <Info name="Training events" value="12000000"/>
    <Info name="TrainingTime" value="6.91337071e+04"/>
    <Info name="AnalysisType" value="Classification"/>
  </GeneralInfo>
  <Options>
    <Option name="NCycles" modified="No">500</Option>
    <Option name="HiddenLayers" modified="Yes">9,9</Option>
    <Option name="NeuronType" modified="No">sigmoid</Option>
    <Option name="RandomSeed" modified="No">1</Option>
    <Option name="EstimatorType" modified="No">MSE</Option>
    <Option name="NeuronInputType" modified="No">sum</Option>
    <Option name="V" modified="No">False</Option>
    <Option name="VerbosityLevel" modified="No">Default</Option>
    <Option name="VarTransform" modified="Yes">Norm</Option>
    <Option name="H" modified="No">False</Option>
    <Option name="CreateMVAPdfs" modified="No">False</Option>
    <Option name="IgnoreNegWeightsInTraining" modified="No">False</Option>
    <Option name="TrainingMethod" modified="No">BP</Option>
    <Option name="LearningRate" modified="No">2.000000e-02</Option>
    <Option name="DecayRate" modified="No">1.000000e-02</Option>
    <Option name="TestRate" modified="No">10</Option>
    <Option name="EpochMonitoring" modified="No">False</Option>
    <Option name="Sampling" modified="No">1.000000e+00</Option>
    <Option name="SamplingEpoch" modified="No">1.000000e+00</Option>
    <Option name="SamplingImportance" modified="No">1.000000e+00</Option>
    <Option name="SamplingTraining" modified="No">True</Option>
    <Option name="SamplingTesting" modified="No">False</Option>
    <Option name="ResetStep" modified="No">50</Option>
    <Option name="Tau" modified="No">3.000000e+00</Option>
    <Option name="BPMode" modified="No">sequential</Option>
    <Option name="BatchSize" modified="No">-1</Option>
    <Option name="ConvergenceImprove" modified="No">1.000000e-30</Option>
    <Option name="ConvergenceTests" modified="No">-1</Option>
    <Option name="UseRegulator" modified="Yes">True</Option>
    <Option name="UpdateLimit" modified="No">10000</Option>
    <Option name="CalculateErrors" modified="No">False</Option>
    <Option name="WeightRange" modified="No">1.000000e+00</Option>
  </Options>
  <Variables NVar="4">
    <Variable VarIndex="0" Expression="ep" Label="ep" Title="ep" Unit="" Internal="ep" Type="F" Min="7.00000048e-01" Max="1.19943085e+01"/>
    <Variable VarIndex="1" Expression="ed" Label="ed" Title="ed" Unit="" Internal="ed" Type="F" Min="1.50000012e+00" Max="1.19938927e+01"/>
    <Variable VarIndex="2" Expression="dt" Label="dt" Title="dt" Unit="" Internal="dt" Type="F" Min="1.00006199e+00" Max="3.99999878e+02"/>
    <Variable VarIndex="3" Expression="dist" Label="dist" Title="dist" Unit="" Internal="dist" Type="F" Min="9.52148438e-01" Max="2.49999976e+03"/>
  </Variables>
  <Spectators NSpec="0"/>
  <Classes NClass="2">
    <Class Name="Signal" Index="0"/>
    <Class Name="Background" Index="1"/>
  </Classes>
  <Transformations NTransformations="1">
    <Transform Name="Normalize">
      <Selection>
        <Input NInputs="4">
          <Input Type="Variable" Label="ep" Expression="ep"/>
          <Input Type="Variable" Label="ed" Expression="ed"/>
          <Input Type="Variable" Label="dt" Expression="dt"/>
          <Input Type="Variable" Label="dist" Expression="dist"/>
        </Input>
        <Output NOutputs="4">
          <Output Type="Variable" Label="ep" Expression="ep"/>
          <Output Type="Variable" Label="ed" Expression="ed"/>
          <Output Type="Variable" Label="dt" Expression="dt"/>
          <Output Type="Variable" Label="dist" Expression="dist"/>
        </Output>
      </Selection>
      <Class ClassIndex="0">
        <Ranges>
          <Range Index="0" Min="7.0000064373016357e-01" Max="1.0604152679443359e+01"/>
          <Range Index="1" Min="1.5000047683715820e+00" Max="1.1879061698913574e+01"/>
          <Range Index="2" Min="1.0119999647140503e+00" Max="3.9999798583984375e+02"/>
          <Range Index="3" Min="9.5214843750000000e-01" Max="2.4999641113281250e+03"/>
        </Ranges>
      </Class>
      <Class ClassIndex="1">
        <Ranges>
          <Range Index="0" Min="7.0000004768371582e-01" Max="1.1994308471679688e+01"/>
          <Range Index="1" Min="1.5000001192092896e+00" Max="1.1993892669677734e+01"/>
          <Range Index="2" Min="1.0000619888305664e+00" Max="3.9999987792968750e+02"/>
          <Range Index="3" Min="8.2370157241821289e+00" Max="2.4999997558593750e+03"/>
        </Ranges>
      </Class>
      <Class ClassIndex="2">
        <Ranges>
          <Range Index="0" Min="7.0000004768371582e-01" Max="1.1994308471679688e+01"/>
          <Range Index="1" Min="1.5000001192092896e+00" Max="1.1993892669677734e+01"/>
          <Range Index="2" Min="1.0000619888305664e+00" Max="3.9999987792968750e+02"/>
          <Range Index="3" Min="9.5214843750000000e-01" Max="2.4999997558593750e+03"/>
        </Ranges>
      </Class>
    </Transform>
  </Transformations>
  <MVAPdfs/>
  <Weights>
    <Layout NLayers="4">
      <Layer Index="0" NNeurons="5">
        <Neuron NSynapses="9">
          1.8062188118933314e+01 -2.1243261198113919e-01 -7.5879888175362387e-01 -1.9073557792949933e-01 -4.5253056855529827e+00 -8.4753139452122550e-01 -8.3671034715642922e-01 3.5799995230304773e+01 7.3168446273345678e-01 
        </Neuron>
        <Neuron NSynapses="9">
          1.1685504714383062e-01 -4.3840138568809977e+01 1.3969641739362786e+00 -1.5956119195950080e+01 -1.0894831122192954e+00 -4.1937159074129209e+00 3.3529884413145723e+01 -5.4141164214685489e-01 -6.8094715266159844e-01 
        </Neuron>
        <Neuron NSynapses="9">
          -1.8262236885572142e-01 3.3143151219521155e-01 -2.4524537280823269e-01 9.0674757144779794e-01 1.4909143587604725e+00 5.3950982720149305e+00 1.4847109252618074e-01 3.3951817740578087e-02 3.8025942482334912e-01 
        </Neuron>
        <Neuron NSynapses="9">
          -2.8321216398370958e-01 7.2084187022913970e-02 -4.5840371442165129e+00 6.5645065641637934e-01 4.3546126192746248e+00 -4.7167728368566259e-01 5.6263733390998605e-01 9.7463168887299099e-04 2.2354101482403474e+00 
        </Neuron>
        <Neuron NSynapses="9">
          1.5676629645224796e+01 -3.4729065390352361e+01 -2.9770849065596527e+00 -1.0162630272138090e+01 -1.8229338239012780e+00 2.6975995970362425e+00 2.9723037484207726e+01 1.9181321650838523e+01 -6.6318763089945232e-01 
        </Neuron>
      </Layer>
      <Layer Index="1" NNeurons="10">
        <Neuron NSynapses="9">
          -2.6251700894211925e+00 1.1076026290055279e+00 6.2655512800276381e-01 -1.5782109241204426e-01 3.9608153394335548e+00 9.6468984694369520e-01 -4.4072168765044113e-02 -1.6918958556290211e+00 -3.4152426270567987e-01 
        </Neuron>
        <Neuron NSynapses="9">
          -8.3008807663003004e-01 -2.8722357165090679e+00 -6.1993043636929612e-01 -1.0832115675892067e+00 1.0848303813950263e+01 1.1356255776696800e+00 -2.2950277262728132e+00 -2.1253472158462997e-01 -3.9031748799895027e-01 
        </Neuron>
        <Neuron NSynapses="9">
          2.0348331662030725e+00 2.4780266895518546e+00 -9.4208601268924796e-01 -5.8599703046459817e-01 4.8400158202515629e+00 2.1008613984655994e-01 -9.1938558793644254e-01 -2.0699425615706648e+00 -2.0441690011015847e+00 
        </Neuron>
        <Neuron NSynapses="9">
          1.1064417257936736e+00 1.3775045758056998e+00 4.5940088488080594e-01 5.8230006742497664e-01 -9.6931538679712119e+00 -3.4380660540393206e+00 2.7937472685256557e+00 2.2671517698124490e+00 1.6006033204624492e+00 
        </Neuron>
        <Neuron NSynapses="9">
          -5.2886960393121463e-01 3.4192316411998774e-01 -1.5198463619664375e+00 -8.1154289978967331e-01 -7.6033130469196530e-01 7.6894294704256361e-01 -1.4412557233345913e+00 2.5533339783573283e-01 -1.0354141007113451e+00 
        </Neuron>
        <Neuron NSynapses="9">
          -8.6286576728071318e-01 1.0160500998025073e+00 5.9026957152232870e-02 -1.0883347032754043e+00 -4.5396992191433885e+00 4.4477225804718801e-02 -2.0802292116101264e+00 -3.2401560464671220e+00 -1.9958935575167784e+00 
        </Neuron>
        <Neuron NSynapses="9">
          -1.6056582072283399e+00 -4.7565026792857372e+00 -3.2128797376571137e+00 -1.0044029048543763e+00 5.6850603231760548e+00 -2.8795196714487195e+00 3.3333544207246996e-01 -4.1891578627212006e-01 -1.2224684496103291e+00 
        </Neuron>
        <Neuron NSynapses="9">
          -1.0567182603526573e+00 -4.3922744606456634e+00 -1.8514668345687926e+00 -8.8502078921786609e-01 5.6330682267757028e+00 -1.5748852965319511e+00 -7.7515119793510634e-01 4.5807534511451840e+00 8.2207930219164993e-01 
        </Neuron>
        <Neuron NSynapses="9">
          -1.0496385624582414e+00 -1.4160118802767694e+00 -1.6706052946436636e+00 -1.7612701193654592e+00 -1.0801418548265248e+01 -1.3996395287330825e+00 -1.3748919082071285e+00 -4.8329761569835156e-01 -5.0553601337419063e-01 
        </Neuron>
        <Neuron NSynapses="9">
          -1.7232797033154086e+00 -2.7577251559475666e+00 -2.6751184686902385e+00 -6.9772266423187135e-01 -1.2939011730489380e+00 -2.6631354740805153e+00 -1.9729779391494855e+00 -4.3861731758118605e+00 -1.8341523481690756e+00 
        </Neuron>
      </Layer>
      <Layer Index="2" NNeurons="10">
        <Neuron NSynapses="1">
          -2.2589785407614968e-01 
        </Neuron>
        <Neuron NSynapses="1">
          4.8741397043925672e-01 
        </Neuron>
        <Neuron NSynapses="1">
          -1.2699382416207938e+00 
        </Neuron>
        <Neuron NSynapses="1">
          5.2028915786642982e-01 
        </Neuron>
        <Neuron NSynapses="1">
          9.9858552875596129e-01 
        </Neuron>
        <Neuron NSynapses="1">
          -1.5114064579834339e+00 
        </Neuron>
        <Neuron NSynapses="1">
          -3.4788281238962676e-01 
        </Neuron>
        <Neuron NSynapses="1">
          -1.4312463292651825e-01 
        </Neuron>
        <Neuron NSynapses="1">
          2.8019507314546804e-01 
        </Neuron>
        <Neuron NSynapses="1">
          -8.1095907217174025e-04 
        </Neuron>
      </Layer>
      <Layer Index="3" NNeurons="1">
        <Neuron NSynapses="0"/>
      </Layer>
    </Layout>
    <InverseHessian NElements="21025" NRows="145" NCols="145">
      <Row Index="0">
        6.3426661289000719e-01 -1.7008600794519782e-03 1.4510136361054110e-01 -2.2853290322885578e-02 3.1450168173933279e-01 -2.4572463454702410e-02 1.0083153461401786e-02 -8.3051699721228167e-02 2.3205960825776459e-02 2.2503610339903383e-02 2.9635686468732506e-02 -1.1682744541039417e-02 -2.0748775862397088e-03 -1.8516707737472410e-02 -1.3324911173332945e-02 -4.7410636686611406e-03 -5.6233667302106119e-03 -1.8251813307827967e-02 -9.9767163572591425e-03 9.4418471402891915e-04 1.2022916896719889e-03 2.8448343871750378e-03 -3.8725176522301084e-02 1.6737628648578196e-02 3.2227488822728789e-04 8.6429513528932863e-04 9.1064383891374841e-03 -5.2067663050068914e-02 1.6470775191318181e-03 2.8876827722446284e-02 1.4335118820991501e-02 -2.0268867644873761e-01 1.6337415575657113e-02 -5.3364421321998399e-03 9.4194176979463130e-03 5.9706753516341603e-02 5.3080240896873754e-01 2.4792289504176543e-02 1.4586107874660184e-01 -1.3619074046879835e-02 5.4619828188949837e-03 -1.4520638740602589e-02 1.9034774208378930e-03 -4.2708221145036918e-02 -4.0183979497320776e-02 -6.4969294719272797e-01 -7.4792409947396984e-02 -1.1602243667077583e-01 -8.7026865617995289e-02 -1.4745970600854086e-01 1.7702427017209654e-02 -1.3878418220809052e-01 -2.5717540378564001e+00 -9.6853584958725825e-01 1.9556944225926740e-01 -3.2519355774815012e-01 8.8437346052283283e-01 -3.2211388080621495e-01 2.3478448834313208e-02 3.6481818256919751e-01 -3.3151470494570612e-01 3.5618320989651475e-01 7.4236604306814624e-01 2.8185728905758423e-01 1.4880926071023651e-01 5.7551901033427000e-01 -2.6663867564695953e-01 9.4461740411638712e-02 -3.0930720061219907e-01 -7.6018500747030981e-03 -4.1312547115345311e-01 -5.2625723285203518e-01 -2.2608834498071473e-01 3.3441242621862488e-01 -1.2397135683820928e+00 2.4221240274656664e-01 -2.2669300456131553e-02 -6.8716505959292984e-01 1.4814948847864587e-01 2.3300131288445070e-01 5.0955868804229532e-01 2.2598261149890761e-02 -1.8667854311481336e-01 -9.8231697304895227e-03 -3.4146252129338062e-01 -7.4696257114601497e-02 7.2063645959022260e-02 -3.0433443756944167e-01 -7.8505236997468109e-01 1.8253551976224458e-01 8.9468431536402937e-02 1.6264011560335256e-01 1.6613570522716109e-01 -4.8838731662861345e-02 2.0937077478013766e-02 1.1783914123967881e-01 7.0679124900670645e-02 -5.2035397310954723e-01 -1.2304913675335900e+00 5.4269602718382437e-02 -2.1858200168760772e-01 -5.6619940904639365e-01 -9.9470433967897870e-02 5.3350950989757909e-03 8.5605386250873827e-02 1.1010332616191529e-01 1.2756983182884926e-01 6.1921037686108726e-01 3.0180477855866422e-01 -3.8929049666786941e-01 -3.6400416955526893e-01 1.3373193654484400e-01 -1.2532484947921954e-02 1.2206027691351107e-01 -6.8860482594522779e-03 -8.0785652188471535e-01 1.5889411179468347e+00 -8.8068768574891543e-02 6.3295015806647648e-02 3.1879608810341298e-01 1.9660096800580745e-01 3.9732700066218951e-01 -1.8300745341270169e-01 3.2846907335333159e-02 3.2712887675962188e-01 1.3948511308569600e-01 -8.8758054279849674e-02 -6.8207990695610080e-02 2.1668126704136208e+00 3.6317075212379124e-01 -9.4003905173168992e-02 9.3147971544538399e-01 5.3697200483632523e-02 5.3311491669905884e+00 3.4253531863232434e-01 6.0576244716410543e-02 -6.0723811784424861e-02 2.5893591635165922e+00 -4.5562111397599581e-02 -7.6452558389318147e-05 1.8008624986639958e+00 7.0926593374842639e-03 1.6468466635455875e-01 -3.3062827122590421e-01 3.6409227568533269e-04 
      </Row>
      <Row Index="1">
        -1.7008600789039886e-03 1.2540388448048972e-02 2.0464018720613890e-04 9.4236133720195792e-03 2.8953365439459432e-02 -5.5546335374125032e-03 1.3406860632871175e-02 -4.1939208680840633e-03 3.5161837150618500e-03 9.6441149475164946e-05 -5.6385615270761455e-02 -1.0381112417839542e-03 6.4283095044356557e-03 -1.1674428931155502e-02 -1.5259113532284604e-03 1.8509585237696670e-02 7.9814915658411205e-04 1.0399180412566465e-03 3.3281056443546387e-04 -1.0520249141226800e-03 6.4371909847350914e-05 -3.5702009671848803e-04 3.5675391229095842e-03 2.5314028374219240e-04 -1.5529815230826151e-03 -8.5869333130900172e-05 -8.3479317327035544e-05 7.5589211890411765e-04 -5.2835335294651488e-03 2.0634411945009814e-03 -2.9946197131194507e-03 2.5215504278580450e-03 2.2462772896800981e-03 -5.8985619602449288e-03 3.3491637663190561e-04 -3.9333830189600052e-04 -9.9150704263279571e-04 -3.8820231952556919e-02 2.7441158395967533e-04 1.0266547952967987e-02 1.9834854148819359e-02 -4.9100229351409994e-03 2.4336104580480522e-02 -1.8977278044632270e-03 2.9993930385212413e-03 -1.5288245416023912e-02 8.3064815649290091e-03 9.4486420677382388e-04 3.5747890967249160e-02 -3.0073276439575747e-04 -1.2256605753971635e-02 2.6395908113140926e-02 -1.0958172544160610e-01 4.0421243165358195e-03 2.8118988331892521e-04 2.5759218961555995e-03 -4.9385814848823366e-02 5.4008159802691046e-02 -1.7712550796539640e-02 -9.3519437795131360e-02 -3.7816128782165087e-02 -9.2844022086153402e-02 -7.5118191782891072e-02 4.8942967045328058e-02 2.1260595814896407e-04 -4.2721232761418690e-02 1.1393240912752053e-02 3.7161884122430405e-03 -2.9985207651892429e-02 -1.6930148808239443e-02 2.1734411629472511e-04 -1.9814918700751034e-02 2.3319964074610403e-02 6.0230672106341906e-03 3.2661062895386472e-01 -4.4788471089169717e-02 1.6291073624650348e-02 1.4658458556318948e-01 1.1300675679797219e-01 1.2701022817639676e-01 7.5693125017649646e-02 -2.6093144313781520e-02 -1.1840635179576158e-02 -6.4803796824256132e-02 -6.8080434688234243e-04 6.9542947548745203e-03 -9.7253971895055427e-02 -7.2185006718700997e-02 4.9109101955998519e-02 1.9611356714965725e-02 1.8116350259800330e-03 -1.1239873112223386e-02 -5.3447510248836941e-02 7.2622871090817411e-03 -2.6037906560608771e-04 -1.6529971102027020e-02 -6.5789637842548904e-02 -6.6270102708538614e-02 -1.3391867298296535e-02 -1.0710095254066224e-02 -2.2124819884747106e-03 5.5160056533542320e-02 1.5301105570999382e-02 -7.4479895313125481e-03 7.9849397805247541e-03 1.6372737082138758e-01 -2.0829271124295723e-02 -3.8941852621866231e-02 4.4691357006696575e-02 -3.7807557402060876e-03 -2.3050625051866815e-02 -2.0321236485124745e-02 6.9515674503989322e-04 5.1110358134008327e-03 -3.8829102256588192e-02 1.5963606673821358e-02 -1.6395804631174141e-02 3.1452682469887555e-02 6.0807456247203295e-03 -5.3290484375561178e-02 -1.9102749093422813e-02 2.0788436430554356e-03 2.9816465984577399e-02 1.1886166698543773e-02 -7.5673878797083427e-04 2.1326050919987100e-03 1.6614374136523162e-02 9.6629296201727194e-03 -1.2941220366527323e-01 -1.9907867252160587e-02 -1.2076065414400990e-04 -4.4856795720180398e-01 1.4428292697681105e-01 2.9270920784772753e-01 1.5507372358632698e-01 1.3763970276259726e-02 -3.4411910242596617e-03 1.1821665313799137e-01 -2.1657544665326548e-02 -1.9007561161436278e-05 -8.2619242361959611e-01 1.1428808212871272e-01 2.6496730944585042e-02 -3.5196612995417986e-02 1.9796425562409224e-05 
      </Row>
      <Row Index="2">
        1.4510136360893139e-01 2.0464018703514981e-04 2.1588285621948416e-01 5.9522333978914571e-03 -3.5873680265280999e-01 -3.4408519355631037e-02 3.3001952226142006e-03 1.2050213857071047e-01 -2.8189813106451127e-02 9.6064392208239022e-03 2.3969586922843289e-02 -1.5291505178030330e-02 2.2004088000504921e-04 -2.6041763200230342e-02 -1.2999727421389152e-02 9.2889131870639297e-03 2.5982290982968690e-03 -1.0982217294741794e-02 -8.6441494467704317e-04 4.2229859502410219e-04 -1.8110769145390410e-02 -8.4177968548312075e-04 1.9617676987334268e-01 3.8782735472898530e-03 1.8535320758611279e-03 7.1938552022873890e-04 1.1240432888312599e-02 -2.0620380918291027e-02 -3.2785677724069120e-04 5.2074405161464513e-02 -3.7632229595277698e-03 2.7163071457424343e-01 2.6553951959847555e-02 -2.3284243775969415e-03 6.7755302578470910e-03 3.9510633532327810e-02 1.2197238569613693e-01 1.9247541227801968e-02 2.0231283300176736e-01 2.9511088023598830e-03 -2.0308586436521198e-01 -2.9218423456939115e-02 8.4039460223799406e-03 7.1686898104176722e-02 -4.4447206472281162e-02 -1.2192111188342317e-01 -3.1787809236672133e-02 7.1972737436406670e-02 2.1259638298204439e-01 -5.5243880070993776e-02 -6.0483929549951340e-02 3.7191499487953625e-02 4.3738789453643090e-01 2.3678975471521946e-01 -1.3738591311972786e-01 -1.6500263912401053e-01 1.1066643470489644e-01 -4.0458046816271215e-01 7.4064911821186963e-03 -5.3823889382805457e-01 5.5251257737891957e-01 1.1798935143847444e-04 9.1320885159074994e-02 3.4362036379324601e-01 3.6486968333862363e-01 2.6871473899906806e-01 3.1712667793260346e-02 2.0842650483856429e-01 -3.1366897880575262e-01 3.2620728510752062e-01 -1.3933116797680634e-01 4.8403728723333983e-02 9.3523378506166766e-02 2.3886972489353639e-01 5.6750678625523754e-01 6.0074619234105964e-01 -5.7292349452305949e-03 6.5568336228779689e-01 -1.1425735886227784e+00 2.4050688490123670e-01 2.5780243634691036e-01 -3.4473947776050534e-02 -1.2611158612930362e-02 -2.8581230385472806e-02 -1.0722650375880013e-01 1.5308928829297710e-01 -4.2010630187144876e-01 3.7569715680471166e-01 -4.3573853797821904e-01 -8.6329638254924013e-02 9.7366742742751644e-02 1.3492231398466811e-01 -1.4064947506869779e-01 -1.5122100750523582e-01 -2.4450426652087506e-03 -8.3896304207181069e-02 6.0288971472580477e-01 -2.8233413541415475e-01 -5.0235689048875420e-01 -1.5026886067404460e-01 -7.9221632901399774e-02 1.3915101005354263e-01 1.4272816061895069e-01 -5.2651052555352518e-04 1.5588552901570052e-01 -1.0205694971818084e+00 3.2722721380571251e-02 2.7186354844787186e-01 7.1006948035848602e-02 -3.1923159899682102e-01 1.0205094545430626e-01 1.5735603010459107e-02 -1.7363797424036022e-02 2.2814643820425973e-02 -3.3655854739810087e-02 -7.8609744358541034e-01 2.7977829911507424e-01 -1.6133086124059393e-03 1.7515402106348477e-01 3.0867902531079544e-02 5.0671794486600141e-01 1.4686256005177697e-01 1.0753690602088828e-01 8.3602721633790858e-02 2.2570388023343191e-01 1.5465814153430801e-01 -6.6713662564196349e-02 -3.4858817119971119e-01 -1.5352886685188012e+00 -1.1828803601919800e+00 -1.8339978109205513e-01 4.1578343741474724e+00 2.4742114557661118e-01 3.5402468402152731e-01 -2.6322087038790476e-01 3.5585506175995665e-02 -5.3803323098957662e-02 -7.6050229949035775e-01 7.5051701801388104e-01 -1.5471093223926838e-04 5.6369903282103824e+00 -5.1340306652455070e-01 -4.7793114930848431e-02 -4.2516600773671170e-02 -8.7742515964355931e-05 
      </Row>
      <Row Index="3">
        -2.2853290322862659e-02 9.4236133718269954e-03 5.9522333993374289e-03 6.1257956925578796e-02 7.8772145416366748e-02 -3.2032840264848442e-02 -1.0296822259687907e-02 -1.5300998643772011e-02 -8.0630168658493619e-04 -9.5866050784742442e-03 -5.5695919743393614e-02 6.9190686771848815e-03 7.2447122220017077e-02 1.0185496391333948e-01 -1.4020460285253153e-02 -4.1380766916697231e-02 7.1096592779047226e-03 1.8578118100159554e-03 2.8818472045447070e-03 1.5659887826031748e-04 -6.0013551800618473e-04 -9.1929433144635128e-03 -2.4697429857351641e-02 -9.4841676617604849e-05 1.1958738324987174e-03 -7.7672804166521031e-04 -3.4042821221215110e-04 3.8316935682850203e-03 -3.0005451270294719e-03 2.1324746982264008e-03 -2.3774983263128255e-02 -7.7370921547028501e-02 1.1428731198415861e-02 4.0266256294324712e-03 -1.3408830214237111e-05 2.0532129730838236e-03 -2.5410707543229591e-02 -4.1422520992045915e-02 1.4039295452117212e-02 8.1275273931007974e-02 1.3270612049100800e-01 -3.2323875415016426e-02 -4.1903169360554729e-02 -2.9250158734873341e-03 7.3672526799825264e-04 -2.0792453793647223e-01 3.8962549433417440e-02 1.6439827328821152e-01 4.0079916176143079e-02 6.8199407217206538e-03 -3.5604874197352705e-02 -1.4512641564402649e-02 4.7985826981455776e-01 9.5092435045793955e-02 -8.1577444220344936e-02 -2.0939286188187439e-02 4.1741931158955289e-02 -1.7538242437796808e-01 -1.5084906310894345e-02 -5.2823696319858215e-01 3.4059039796887935e-01 -1.6087257028050575e-01 -2.4600173340104528e-01 1.3815449946988424e-02 1.4883836824659229e-02 -1.8451148798072975e-01 -1.0024777031847895e-01 4.8364020009929159e-03 -1.8385027644212637e-01 3.9782868995971485e-02 9.2110137984828588e-02 -6.0637074064409602e-02 1.3748204290325683e-01 2.1532653245902200e-02 8.9323797090914647e-01 2.9135040408507773e-01 -1.5432351805284373e-03 6.6194865278596127e-01 -6.1991399722542229e-01 2.6491832122412923e-01 4.7128278642356441e-01 -1.6234716376972835e-01 -2.6433067186352178e-02 -4.8978340155656502e-01 -3.2026844995255196e-02 -1.8063242598753998e-02 -2.4256044311744698e-01 1.7915636965220016e-01 -1.3233329150667515e-02 1.8009573834672166e-02 -5.8088713198000658e-02 4.4225051003498529e-02 1.1189666890367966e-01 -2.0337011431376240e-01 -6.5641267618443046e-03 -2.4450220837286658e-02 2.5421182108696971e-01 -9.6684643240463594e-02 -2.9144926140476879e-01 -2.5561637961006370e-02 -3.7520444773515078e-02 -2.8521942915904769e-01 3.4619454301934094e-01 -5.5576976106549091e-04 5.1570027998329030e-03 -1.1282221121308530e-01 -2.2192496709229514e-02 -7.1508084869927602e-03 1.2750879798150799e-01 -2.3589689512772072e-02 -2.7520775852628832e-01 5.8439232025269343e-02 2.4019276601747802e-03 1.4826828388232460e-02 -2.8066687948739524e-02 -2.4842170598291546e-01 1.9902423883135265e-01 2.6264145475145884e-02 2.8635807435614752e-02 -9.2329265258820237e-02 1.5276968543294217e-01 1.0667878289904995e-02 5.8165913604675424e-03 -5.0036339595570661e-03 6.8968603259151190e-03 5.3530592607790028e-03 4.2803088306238496e-01 -4.9624602580212451e-02 2.6838608931755448e-01 -5.5901636198567406e-01 2.0644877070790289e-02 9.5051979858965230e-01 -1.0872501361497518e-01 -1.5987455373287951e-01 9.6488271152818517e-01 8.4368010714997735e-02 -1.3034830639458442e-02 1.8230053177476981e+00 2.8072338550021503e-01 1.0495410922991514e-04 8.9560653134136670e-01 -2.5744125771100090e-01 -2.7065640196727025e-03 -3.2021003056520203e-01 1.1698617946707256e-04 
      </Row>
      <Row Index="4">
        3.1450168174985438e-01 2.8953365438934477e-02 -3.5873680264878322e-01 7.8772145420356460e-02 8.3537985330751248e+00 1.7147160746094972e-02 4.9786050378487934e-02 -3.6007901263757636e-01 4.4557497329762075e-01 -9.0204687184463200e-03 -1.4106513951067520e-01 -1.1182482631995200e-02 -2.3039729455922447e-01 1.2201709325958494e+00 -1.4961677380335749e-02 -2.2852774033277959e-01 -2.4279947531185519e-02 -4.6861353285950348e-02 -4.9760788321654668e-03 -1.0611843252563521e-02 1.2404286893879947e-01 -3.3399872023513848e-03 -2.0982809358498558e+00 -4.3465375646550390e-03 -5.5542826910365099e-03 3.6190320737667942e-05 -2.8661484682370262e-02 -6.8243872735316416e-02 -1.8212558962388870e-02 2.1988236156094229e-01 -2.5462418666198184e-02 -5.6103038808704797e+00 -3.8470950917572605e-02 -2.3667820290154233e-02 3.0662870409319032e-02 1.1085899431160631e-01 2.3212807531835977e-01 -1.0576586088719334e-01 -7.9426643913238532e-02 -8.4194435618257124e-02 4.2951177814017081e+00 3.1474081569707567e-03 -1.7375065177287685e-01 -2.4083084637751226e-01 4.6147134497573211e-02 -1.4547455244465410e+00 1.3086974093414844e-01 9.5596886149225291e-02 2.4476405257202383e-01 -1.3490395752957524e-01 -3.6421112758281571e-01 -1.0844259155788619e-01 -9.6236990612035065e+00 -2.9596287014318723e-01 -9.6412891956148217e-01 1.8211907726193022e-01 -3.3798102707468054e+00 -2.2314111589705532e+00 -1.2842159148086502e-01 -3.5313211246148764e+00 -6.2415659253201994e-01 4.5393603483187617e-01 1.1886194823073388e+00 4.0674740479475396e-01 -5.8130073898429868e-01 -2.9686021022299487e+00 -1.2877051230803693e+00 -1.7634742823661431e-01 -8.9895210451597196e-01 -8.4080477760969696e-01 5.4876486049560924e-01 -2.1286586694238441e-02 6.9352227391025811e-01 -1.0325535776058860e-01 5.1117592619358545e+00 1.2789513509376476e+00 2.0240881277200518e-01 5.4829929794980892e+00 -7.8421896864224261e-01 6.7562715119652861e-01 -1.1027436944686464e+00 -1.4591664738377554e+00 -8.2881095259891624e-02 -6.1451776127892099e+00 -1.5286809953078127e+00 -1.8799618056799088e+00 -1.2616208250537184e+00 -1.2877568035416962e+00 3.9565181199881669e+00 1.5996208272880434e+00 -4.8543146012599991e-01 -6.7162669592086210e-01 1.7623484835331547e+00 -8.3364680743019759e-01 1.0823841933571221e-02 -1.0442173146313485e+00 6.5406432139294568e-01 -1.2320482795092027e+00 1.3956359717054676e+00 -8.0836702105958425e-01 8.7625206149527846e-02 -2.0989417551042733e+00 1.2823127001604837e+00 4.1207090328470440e-02 -1.1712855435823026e-01 1.4967931747051442e+00 8.5492727310250771e-01 -2.3313175956698462e-01 -1.1217572484010643e+00 2.2525470073675047e-01 -2.7473410147735269e+00 -2.7501047876214746e-01 6.3722975341018229e-02 4.8963945221574523e-01 -4.6762476375324902e-01 5.3982730000456121e+00 -1.2363488101946118e+00 3.4121415804542643e-02 -1.3004283331651667e-01 1.1744377123937884e+00 -4.8219717652742933e-01 1.8069545352061103e+00 -1.0461467746415489e+00 -5.3744801184119551e-01 -2.3991904162509856e+00 -1.3355727743922943e+00 4.9165423680037019e+00 7.0894417967929202e-01 1.0763657921173731e+01 3.1763326672941035e+00 3.4249529950369106e-01 -7.1938104677792625e+00 7.5024604148009710e-01 8.0330925806344471e+00 1.8391035003785352e+00 8.7829985252627618e-01 8.3549181277261464e-02 1.6258707141221326e+01 -1.1538198952299450e+00 1.5689909697809432e-03 -1.5292637299652679e+01 -7.4766627065902203e-02 9.2897343685807909e-01 -7.4242539222142545e-01 -8.6572798441630829e-05 
      </Row>
      <Row Index="5">
        -2.4572463454300166e-02 -5.5546335367616020e-03 -3.4408519360585602e-02 -3.2032840265995573e-02 1.7147160758739836e-02 1.5367374586564897e-01 -1.5421131552762954e-04 5.9482480819410093e-04 -2.4328570852256070e-03 -1.4647085619963855e-03 1.2939448819735676e-02 -3.2881982045460806e-03 -8.1406090472296480e-02 -7.3840537044160520e-02 4.6497775114340077e-02 2.8392943907985719e-03 -1.4845357779873114e-03 -2.7625642476113116e-03 3.3871930986907953e-03 -1.0140572893065540e-03 1.1401367035726055e-03 1.0326458629728086e-02 -2.2622374948930046e-02 -3.1152614756201694e-02 -1.8280851355870487e-03 -1.7903623915728987e-03 -7.3806581201713104e-04 4.3991481566751922e-05 -4.2649294945170790e-05 3.0872363911809146e-03 1.0016339344644807e-02 -4.1217769443344779e-02 -4.3129544480865520e-02 -1.4636883181358600e-03 -1.2562382813591233e-03 -3.1391411224984817e-03 -2.1089263718198234e-02 6.7460072265698532e-03 -3.0806959617569497e-02 -6.9166241059196554e-02 -5.8729179677042082e-02 1.2407216221856772e-01 7.6316931058727829e-04 -8.3756719268980595e-04 -4.3529459027439373e-04 -9.0500229606835514e-03 1.6560838392498764e-02 7.5994901151290817e-02 1.2242690550545464e-02 9.6956797505096011e-03 -3.7138442047596323e-02 2.6780284947359387e-02 -8.0824765509984986e-01 2.2963988310343525e-01 -4.9315288227733269e-02 1.0700302108102840e-01 -6.4137966424525450e-01 6.8673106689737057e-02 -4.3637666295486092e-03 1.1327457213804978e-01 1.1175880635011154e-01 4.5520656101215654e-03 -2.2497144434414282e-01 2.9436273366315543e-02 -1.1146712509934849e-01 -8.0942045774187787e-02 1.4742954193616664e-01 -1.5691983285459784e-02 1.2160926032497218e-01 4.8373056838319106e-02 4.2112448545262304e-02 5.2631982340223571e-01 2.3357069643896836e-02 -9.7268807511722302e-02 3.3398000332270195e-01 -1.9234058642312618e-01 2.7884533691052295e-02 3.8668524062147561e-02 -9.4938075732130922e-02 -5.0180777575159230e-01 -5.7665085559848706e-01 -4.7298925037171535e-02 4.7497809312430327e-03 -7.0337581474836736e-02 1.3665205147779752e-01 -1.8264680202055076e-02 -4.7474621738852196e-03 1.4207051667064952e-01 4.3964496145498322e-01 6.3527179698668626e-02 -1.3906752466480099e-02 -2.3277250579766845e-02 4.3686004002275047e-01 9.0425040278317576e-02 -1.4708510608152937e-02 -5.5242695475688969e-02 4.9895635423042789e-02 4.3074314033477007e-01 8.8298340476111292e-01 -2.9735333733529774e-02 6.3710931709884705e-02 -2.3685719732312821e-01 9.9058266497282665e-02 5.3001645317078084e-03 4.2145538593495548e-02 -2.1089959077017834e-01 1.1524991415997859e-01 -3.0264722663019890e-02 -3.3934258811217921e-03 2.1459389550570113e-01 -7.5264752942231491e-02 1.5673376986859680e-02 -1.4078801240296115e-03 4.1389086702112186e-02 1.4127456516477957e-01 9.1746765092892724e-01 -8.4761053614900128e-01 1.6594386698391056e-02 1.2338608655409034e-02 6.9938558476606016e-02 -1.0854146342088716e-01 -1.3468540691093515e-02 6.2483566300837880e-02 3.4167882682267822e-02 -3.3786962937760823e-01 -1.7002228856572507e-01 2.2088958085051844e-01 1.7231551040055457e-02 9.5469807537226936e-01 1.3918134062331844e-01 1.5500610041152840e-02 -1.6465676085579468e+00 6.1744910161039057e-02 -1.9425461878163269e-01 -2.2796432708816479e+00 3.8473131906219565e-02 3.7417011114640727e-02 1.3460635460347543e+00 -2.1738358389447771e-01 -6.7049954289299506e-05 -2.4973175060525388e+00 1.2767509500653793e-02 5.1503718350890543e-02 7.4482418022096331e-01 -2.8084576501617210e-04 
      </Row>
      <Row Index="6">
        1.0083153460877211e-02 1.3406860632341920e-02 3.3001952248577666e-03 -1.0296822259156924e-02 4.9786050372556276e-02 -1.5421131655735457e-04 5.1863344344557950e-02 -1.3530539016838776e-03 1.0826743883778304e-02 -3.8961390418321322e-03 -5.5212125327089315e-02 -3.9804599107198524e-03 -3.5840472126307026e-02 -9.1592365644117407e-02 4.0040324719580415e-03 1.1367713300829861e-01 5.8709391171485187e-03 4.4668176384629566e-04 -5.7721224440475307e-04 -1.9535874865624814e-03 5.2056069028518512e-04 3.6892419764650566e-03 2.3433248900546065e-02 -2.1556853422870998e-03 -5.4293147048587098e-03 3.5542011995350737e-04 4.8366356725644327e-04 4.8943477471716408e-04 -6.6263577181699066e-03 3.3373641687703581e-03 7.8705601423505033e-03 4.0634112704643593e-02 5.9041651780593341e-04 -2.1780954606000540e-02 1.2394716948001504e-03 -5.2436515616872546e-04 4.9857633690940928e-03 -3.7141866525390373e-02 8.3878495027474298e-04 -2.5846157000428756e-02 -1.5142863028688835e-02 4.0945843182161289e-04 1.3196181216743066e-01 3.8166982577872710e-03 5.9815750063530685e-03 1.2103853102233575e-01 -1.0958103726373285e-02 -1.0799170337305808e-01 4.0820804969913756e-02 -6.3237987966603456e-03 -2.6371433371833473e-02 7.0911991815842318e-02 -7.1212728699067918e-01 -1.1802813246778607e-02 2.8976897984952052e-02 2.9108286169787292e-02 3.2617298329074992e-02 3.0494744834633525e-01 -3.1875906184110708e-02 -1.4400182025543862e-01 -4.1460086321763190e-01 6.8141761170596976e-02 9.1132622190434692e-02 3.9766371976572165e-02 1.4179984102725939e-02 -2.8790894287914426e-02 1.1947912722726994e-01 5.5157086443963299e-03 -7.7334252361870720e-03 -6.2580803960568809e-02 -4.5870267436566969e-02 -5.6746976871581548e-02 -4.1946626784793807e-02 6.9648230148854073e-03 3.5502766959122439e-01 -4.5029494387180191e-01 3.7123319778186711e-02 1.5414549854564569e-01 8.0625368826854005e-01 8.3023776765410479e-02 -1.3801796053762511e-01 5.3008688444998731e-03 -3.4804707358046749e-02 4.9440175219292337e-02 7.1413037426183490e-02 2.3165008380375402e-02 -1.4689102156157643e-01 -3.0954801840209106e-01 1.5828751844188588e-01 -6.6401082514066095e-02 6.8412579558783104e-02 -4.0577446162644734e-02 -1.9726068317206261e-01 2.1322121118872947e-01 1.4332974530027309e-03 -3.0071966653395375e-02 -3.6085880756296801e-01 -2.0531526505796630e-01 1.4270751717994765e-01 -2.8126909534671854e-02 3.4266085054344621e-02 3.8846035587672090e-01 -3.4427660949600952e-01 -1.9134756252011310e-02 -2.2327229823639681e-02 6.0472046256354517e-01 2.1628461931081144e-02 -9.2174840525324681e-02 9.6155118458035149e-02 -1.3747141960996828e-02 1.0405972799273949e-01 -8.7869142412179940e-02 1.9144050972493387e-03 -1.2455789732104983e-02 -4.8858479457520754e-02 5.3462328094408940e-01 -1.9076068680703651e-01 1.3927368429323406e-02 2.7637660289849819e-02 -5.6624414562457315e-02 -1.0875902080058716e-01 7.2539667614956978e-03 4.1949502376277786e-02 8.2891935094134978e-02 4.2348397356626877e-02 2.6557577613157218e-02 -1.3892564421703271e-01 2.6450464179647998e-02 -5.1624584856191080e-01 5.8260414012501704e-01 -9.0761354388808717e-03 4.6314203690768463e-01 -6.8409607894870661e-02 5.0079502448087321e-01 -1.8738164501329418e-01 -1.9732252757824045e-02 -7.7498867648659459e-03 -5.6831324343294654e-01 -3.3844490772080615e-01 -4.7426048508380746e-05 3.9537387777195238e-01 3.9443320609719074e-01 7.4673234999924648e-02 5.8019417675925937e-02 9.1700026838489337e-06 
      </Row>
      <Row Index="7">
        -8.3051699725399997e-02 -4.1939208678853854e-03 1.2050213856089334e-01 -1.5300998649052730e-02 -3.6007901263893316e-01 5.9482481698714881e-04 -1.3530539047882442e-03 2.4095206584324522e+00 -7.2919509360777290e-02 2.2692436047597391e-02 1.1243484538422141e-01 -1.0235532388630092e-02 2.0109428587322120e-03 1.3896391888740478e-02 -2.0067021011776917e-02 -5.1968811312724850e-02 2.5440731440227241e-02 -1.4533107562903677e-02 -3.6307431986326334e-03 1.5385733621138958e-03 -8.2853937289494063e-03 1.8428407053990717e-03 6.3372808695435601e-02 2.8046776097319162e-02 2.6170574370926181e-03 -1.1020526569510351e-02 8.9853895748674781e-03 -1.6561064077674492e-02 5.7538842136385963e-03 1.5490383102223362e-02 2.0946780826139695e-03 4.0154505378437955e-02 9.1389073061107096e-03 1.0246460248999469e-02 -6.6189502271372269e-02 5.3488762708936440e-02 -6.1596339655175511e-02 9.1022860316161733e-02 1.1123892767016375e-01 -1.3613523950836825e-02 -2.9924571905277175e-01 1.2145743531631323e-02 -4.4095339540992304e-02 1.3897859890466140e+00 -6.2632408535124320e-02 7.6809931359145567e-01 -1.0910747069491930e-01 3.1437364201943346e-01 -1.6681259536761989e-01 -5.0360306124086818e-02 6.9977281717829479e-02 1.1235612538197416e-02 1.4879987665366610e+00 -3.8811995131875343e-01 -9.4502166696854573e-02 1.1919834460929118e-01 9.3563900856948468e-01 4.3948538906557688e-01 4.4691400561870556e-02 3.6814699709808141e-01 -5.9175551594310372e-01 1.8221644079802237e+00 1.0361926101648049e+00 -5.7028201613525564e-01 -1.2159672794296220e-01 1.1952119059954567e+00 7.1612808748161216e-01 9.6505120290987748e-02 3.3264881823287595e-01 2.6493534058515156e-01 5.1626281495329196e-01 7.3543026033530456e-01 -2.1555933086307913e-01 1.4802911837775728e-01 -1.6179834005918401e+00 -6.0798578291954986e-01 -3.8327042302780792e-02 -4.7089062115264946e-01 1.1545596479787505e+00 -2.0847268939530075e+00 -1.3295617359167555e+00 -6.9936263612515204e-02 -1.2403387636461641e-01 1.0189400760501492e+00 4.7999038857047155e-01 3.9721216543650600e-02 4.2579930763993556e-01 -2.0364824976747609e-01 -2.2160987143460096e+00 -2.5144431233471676e-01 1.3112985766292060e-01 -1.4215496575678421e-01 2.9790514279335495e-01 4.4066103993580508e-01 1.7445920214089354e-02 2.8967429274594794e-02 -4.3343376347832879e-01 5.5475430126640823e-01 1.8657846050056714e-02 -1.6956821307580050e-01 2.2811025862294038e-01 -5.8246188351666572e-01 -6.7483916664446442e-01 1.0509048555741175e-02 2.1257988491215887e-01 -3.0295851300314575e-01 1.7041643334448531e+00 1.5546098317188559e+00 -4.0911363931635858e-02 4.8554594465540990e-01 -3.0615924989996879e-01 5.4651058075289582e-03 -1.9859214473752546e-01 2.3642803411136670e-02 -7.1458619958459507e-04 -4.2683310794509781e+00 1.2923222667451256e-01 -2.3296744863021646e-01 -2.8850358981153607e-01 -8.1916687778951358e-01 -3.7951652482719103e-02 3.5544773145377134e-01 -1.5606455892249843e-01 4.4630919963584877e-03 2.2103036537370255e+00 5.7318972005343183e-01 8.0901591898671132e-02 -1.3119082787800332e-01 6.5543044797868000e-01 -1.0458807937481405e+00 -1.2656108245120939e-01 5.3359585729815766e+00 9.0188813518600197e-02 1.7247104107229294e-02 -4.9745210959585764e+00 -1.6615842694917282e-01 1.3893427105131034e-01 8.2975979896566732e-01 3.4396157495486690e-01 -1.5018378204808243e-04 9.0426321110076948e+00 3.0265764800456052e-01 -2.3812285682408746e-01 1.2849534839152104e+00 -1.0673099240063812e-03 
      </Row>
      <Row Index="8">
        2.3205960827693130e-02 3.5161837150502920e-03 -2.8189813106536784e-02 -8.0630168623822482e-04 4.4557497330005369e-01 -2.4328570877147418e-03 1.0826743885725245e-02 -7.2919509362735918e-02 5.6458137647966117e-02 -9.6677910610517355e-04 -2.7217821782878258e-02 -1.0468847894244125e-02 7.5352274481295493e-03 5.2503193661797634e-02 -3.7185754907899369e-03 3.8400860598352057e-02 1.6627394574520501e-04 -6.8127813465047845e-03 -1.5860980467021267e-03 -7.3701245340116622e-05 7.1916461480031977e-03 -9.9601630328076309e-04 -1.2932754572892191e-01 1.6260291606727201e-03 -9.7377339744279291e-04 1.1889151392196404e-03 1.0813658850658422e-03 -8.3393807236694026e-03 -1.5752913774688849e-03 4.2887077054717400e-02 -9.1461811423930027e-04 -3.4670104015260589e-01 7.7138981960530348e-04 -4.3243983013853508e-03 5.9041304244656437e-03 2.5257345607635272e-02 1.4612085788746801e-02 -1.9469282802136209e-02 4.5645447283333487e-03 2.7614939180832356e-03 1.6969668562026222e-01 -2.9372110592192613e-03 4.2129914700676910e-02 -4.3047311513778316e-02 7.6618896178652640e-03 3.6770016056916294e-02 3.0738323363115314e-02 -3.1888856988090616e-04 2.1734008483417486e-02 -1.1001297205578835e-02 -2.2881077911913340e-02 -7.4970476778027373e-03 -6.7144188636694757e-01 -1.6495174148772612e-01 -2.9020670710579361e-02 8.3108290879458126e-03 -1.4262512438931688e-01 -1.5462965507040038e-01 -8.2654471557000054e-03 -1.6101424772177556e-01 -9.7647268858407285e-02 -4.9947067114279875e-02 9.7974528864702384e-02 -5.4440574083756736e-02 5.7898647296456621e-03 -5.1942462140123609e-02 -2.1516066367441224e-02 5.1582042414376410e-02 5.7513141271686233e-03 -4.6139395626959168e-03 -8.2741364159639730e-02 -1.5283015166002714e-01 1.0935407661002317e-02 -1.8592582133489410e-02 1.2029299661691606e-01 1.2201120050206375e-01 3.5733991486787114e-03 2.5630872773166258e-01 -1.1161789782388469e-03 4.7834671535410288e-02 -2.4274522378103132e-02 -1.3423533169886115e-01 5.1667745924607539e-03 -1.9459961769673537e-01 -1.1854386124207211e-01 -1.2388063102484520e-01 -4.8119064420967098e-02 -1.1959779884948943e-01 3.6189429218311586e-02 2.3843446744369681e-03 -1.0216390527851123e-02 -1.9310405529360676e-02 3.4985632507254727e-02 -6.1626707539179600e-02 3.8989153610700829e-03 -5.9878560315484060e-02 4.6363316012040853e-03 1.6433207721839191e-02 -5.1954532011623124e-02 -3.6344650761501320e-02 -9.7817651938996043e-03 -2.8238689030843509e-02 -9.6150582047836136e-02 -7.3061328533810350e-03 3.2368630492524864e-02 -2.0226414421759323e-02 -2.0664133851185772e-02 6.5663536047857129e-02 2.0937188028538611e-03 9.0805306165971239e-03 -1.2551433997849448e-01 -3.8438550737050714e-02 1.5229374320920084e-02 6.1115909373875649e-02 -4.5375633707247870e-02 6.8151591872584044e-02 1.8317887516483766e-01 4.7604720252198321e-02 -3.7426738429958167e-02 -5.9244700149909624e-02 -4.3772792126168802e-03 2.2398995530144333e-01 -1.3233903872212275e-02 -1.4918675292233480e-02 -3.6414004980348857e-02 1.0947381565896724e-01 2.7845704950305994e-01 3.2900982326870692e-03 6.9127690942906006e-01 5.4819865184848227e-01 -3.5658147900212191e-02 -1.7487842302113616e+00 5.5227197516292925e-01 7.5677472747618135e-01 2.0181685308269376e-01 3.5380697125432389e-02 2.5361978634420509e-03 7.8134707771018297e-01 -1.5247575913158748e-01 1.2905465466796874e-04 -2.7418578501344206e+00 1.2431878532006896e-01 1.1953484642151818e-02 -8.1407159643541532e-02 6.6868344981547653e-05 
      </Row>
      <Row Index="9">
        2.2503610338801293e-02 9.6441149193296234e-05 9.6064392217545813e-03 -9.5866050787162399e-03 -9.0204687235273424e-03 -1.4647085608677085e-03 -3.8961390426308215e-03 2.2692436051679778e-02 -9.6677910723758607e-04 7.0182555101612046e-02 6.2293398061330808e-03 -2.1663016399155608e-02 -1.1890151852623968e-02 -1.9743000303211210e-02 6.3519754983652650e-03 -1.9072259160037349e-03 3.0844676669837548e-02 9.3175680134147208e-03 -6.9019395644258873e-04 1.8093709171718435e-04 -1.8988074720075812e-03 5.3161917887980387e-05 1.9588310953030583e-03 3.3204626040478332e-03 7.0774471849911237e-04 1.2613759321018520e-04 1.7487403499884691e-04 -8.0554192494954480e-03 -6.9768495420042599e-04 -9.9083281998655192e-03 2.1464034039189771e-03 3.0701606213481836e-04 -2.9717683418657714e-04 -1.0069564791629266e-03 -1.6489202750785276e-03 -7.8326379697629092e-04 7.4329703884786505e-02 4.9221956594017223e-03 -1.6546206636319696e-02 -1.5906798160030777e-02 -2.8832771102432764e-02 2.1675919323712427e-03 -5.3868893743065395e-03 3.9273691204722128e-02 8.8830724361134532e-03 2.5212721581033870e-01 -6.0955923453648267e-02 -2.7035397888335297e-02 -4.7293801311695277e-02 -6.6786758582342374e-03 -7.0733182284211923e-02 -1.0331243104954807e-02 -2.3433531091320642e-01 -4.2532871897986865e-02 4.6302584877565507e-02 5.6659819666399491e-03 3.1768028275937865e-01 1.4333964900167509e-01 2.3672854791767263e-03 1.8259277215664691e-03 -1.0063800120439639e-01 5.7464997201052664e-02 7.8947153633052047e-02 -1.8481246650668726e-01 2.8887765455803002e-02 5.9586427270728326e-02 1.1355615072744592e-01 -1.5770245215102393e-02 -2.4640419680138546e-02 2.4191816024970933e-02 4.9025343184067038e-03 -9.3306555929742463e-03 -1.2613004966134167e-01 2.6749007608002168e-02 -5.9396172197072855e-02 -1.6708096812645737e-01 6.1511782433159787e-03 4.9288415408474645e-02 2.0032531161245640e-01 -7.1183275585548295e-02 -1.2364814731981477e-01 1.6104004706772247e-02 -1.8899121337106750e-02 -2.5917165183919899e-03 3.0989798307457884e-02 3.9888266393682016e-03 -9.7504005159557677e-02 -1.1696228208274052e-01 2.8671142961553375e-02 2.2980153089083105e-02 -3.8366171610886984e-03 -3.8823068124366561e-02 -5.5604215300984791e-02 4.3573350892337798e-02 1.5638223484263615e-02 -3.2529979961996566e-02 -1.1777643710790631e-01 -6.9373068862280673e-03 1.3132313585393622e-02 -4.9998993221305202e-02 -5.3113115405724227e-03 1.3035293926443731e-02 -2.2169299356773564e-01 -5.4611369328913181e-04 -2.7202564275591427e-02 -4.1593915524434810e-02 1.3454558989592608e-02 5.5088232043986184e-02 4.2363364210250165e-02 1.5082474675420121e-02 5.9350020643081369e-04 -3.4760862279465510e-02 -4.4585932283890163e-03 -9.5735780110959290e-03 -4.5340144102177848e-02 -1.7247058463092074e-02 1.0852128867023331e-02 -1.3818546216669958e-01 2.6078891337389082e-02 6.3115640234282192e-02 2.3478368134917271e-02 3.3685092261094562e-03 -4.6036469690094152e-02 5.6582015508428417e-02 -2.5195580732096989e-02 -5.8418012219424442e-04 -1.9614030055664242e-01 5.0345342741295041e-02 -8.3547093106238712e-01 8.8403058519796782e-02 -1.4915376721992899e-02 1.9333904265325421e+00 3.5752039057375412e-01 3.1482585339032421e-02 -2.9213816610895726e-01 -1.0422456516539270e-01 2.7513296225618114e-03 -7.8805060982151987e-01 2.5836578029483928e-02 5.9418763120513239e-05 2.5901158506869733e+00 1.4509007901687071e-01 -3.1024079206551147e-02 8.2177477969797033e-02 -8.4691500708067801e-05 
      </Row>
      <Row Index="10">
        2.9635686474335014e-02 -5.6385615272704852e-02 2.3969586916740171e-02 -5.5695919753670095e-02 -1.4106513953404434e-01 1.2939448840679322e-02 -5.5212125331522116e-02 1.1243484543375450e-01 -2.7217821787479189e-02 6.2293398041192299e-03 4.2300801452789489e+00 -3.2533611706838828e-02 8.4491216162940797e-01 1.3866431987848116e-01 -1.2119994054166310e-01 -1.7121038163817139e+00 -1.2416789222714220e-03 -1.1619819567312782e-02 -1.8991884703618610e-03 5.1744207164049358e-02 1.6434684709141223e-03 -9.6725458550470461e-02 3.2466330910675183e-02 1.4123429288023398e-01 5.0092914828704135e-02 -1.1473720586583826e-03 1.7163506428119361e-02 -1.1451838123683153e-02 1.0192849491611539e-01 3.3478804046979331e-02 -4.8280083314106208e-02 1.1964638998000690e-01 -1.2580004456804558e-02 7.7775868986715152e-02 -9.0850882878192318e-03 5.7796177257532909e-02 2.7216627111750658e-02 3.4163893635986984e+00 3.4906704753278395e-02 2.1142256793879427e-01 -9.3208554868502436e-02 6.8224791992131259e-02 -1.6303975736331426e+00 6.1755355234933473e-02 -5.8941579168864042e-02 -2.9213588872190988e-01 5.9007654078118366e-02 3.1367855307536263e-01 9.4139343711243342e-02 -4.8010312014660841e-03 6.1934371905086949e-01 -3.1903604673468400e-01 1.3026915275544031e+00 -3.8742985820372167e-01 -2.7854170646819199e-01 -1.5324163676172282e+00 1.4053414120078456e+00 -2.5153296248816286e+00 1.5932487339686665e+00 -4.3151416132331821e-01 2.2192633619632951e+00 -3.7320946653196962e-01 -6.5992093089771020e-01 -4.1221472244096902e-01 1.3556198438091097e-01 1.0021978677317613e+00 -1.6139664057347711e+00 1.1948631467261586e-01 -8.4414172137542254e-01 -1.8188773979285211e-01 -1.1581438923322924e+00 -9.7978135743226979e-01 4.0958040478289670e-01 1.2609491653505516e+00 -2.8396593960836909e+00 4.4962538973000772e+00 -1.4602973908224868e+00 -3.6016234943877301e-01 -4.5634112812815548e+00 2.0554705627551408e+00 3.1059846577783037e+00 -1.8731329364809479e-01 -4.0444499625431635e-01 -3.5656552386221119e-01 -1.8680226748717332e+00 -1.4899631832310203e-02 3.5088809587760339e-02 6.5614599913617488e-01 -1.2067013354639609e+00 -5.0278831875335039e-01 -1.9966888416798501e-01 2.7671806755724804e-01 1.0148009838025676e+00 -1.7792708106030297e+00 3.7396151331509628e-02 1.0216837290949130e-01 2.3368319411836449e+00 -1.8879011461702269e+00 -2.6772492218364774e+00 7.7073030116059593e-02 -6.8733923361687921e-01 -2.0963244995742918e+00 1.1962588312067279e+00 3.0269429849309504e-01 -5.5263265075211288e-01 -6.5856494548360631e+00 7.4000396157027737e-01 1.5182963069123194e+00 3.0630365396620007e-02 -3.9082496251077403e-01 -1.2132913739417690e+00 1.5846725447741639e-01 2.7834767566602830e-03 -5.6875646976725136e-01 -5.7173509661053101e-01 1.2258506626553312e-01 2.2790139411071344e+00 -2.2504442314436979e-01 8.3277822465380069e-02 5.3997643203397505e-02 1.0807957722725630e+00 1.4903158903450908e-01 -5.7764442403711647e-01 -9.1924274674605733e-01 6.1706455488681389e-01 9.1563590096613234e-01 -2.1454442368996429e-01 1.9688533865028424e-01 9.5527196425100129e+00 -5.6851642617905074e-01 -4.3085746918311041e-01 2.1150457484265839e+01 9.8745808075740786e+00 3.9375075856456685e+00 -2.8255447312844928e-01 -8.1524799295509265e-02 -6.4402050068751771e-02 1.1558779396988200e+01 1.8379387953151953e+00 -1.4532456707866100e-04 3.1840514841745680e+01 -9.1923067136493786e-01 6.3353431635960988e-01 -6.4868908885398813e-01 -4.8151117614212509e-04 
      </Row>
      <Row Index="11">
        -1.1682744541127358e-02 -1.0381112417867659e-03 -1.5291505177326484e-02 6.9190686772403597e-03 -1.1182482635057469e-02 -3.2881982057828864e-03 -3.9804599102942692e-03 -1.0235532389929216e-02 -1.0468847894696529e-02 -2.1663016398643216e-02 -3.2533611711896997e-02 1.3534214984658854e-01 -6.7720303458027625e-02 3.3518991505607554e-01 -5.0272208061610136e-03 4.5296912874388161e-02 8.5498754607499696e-03 4.5363135238997371e-03 1.1618718811150209e-04 -1.1362280700398385e-03 -2.5590815065343175e-03 4.1076548726546990e-03 -2.1549929610769507e-02 -2.3585911480195620e-03 8.1146886090663209e-04 -4.9957042648553478e-04 -6.9371143033367041e-03 -2.1110173125020691e-03 -8.5876769909457636e-04 -1.0768809125761922e-01 -4.8827929238001730e-03 -1.2247544253194853e-02 -9.3067905616585067e-03 -2.9930695540469998e-03 -1.5262309883434695e-03 -3.0503515272473903e-02 -2.9440081665737080e-02 -2.6904425071429778e-02 3.1899329539740853e-02 -3.7057138012163628e-02 2.8423239269514011e-01 -6.7999481937765392e-03 3.5830111416742465e-02 2.0515059729030449e-03 1.9710020831824812e-02 1.6154937388770885e-01 8.5005517166178643e-03 -4.6799416939120639e-02 -6.5839612528674013e-02 4.4156540634263230e-03 5.5607837225545860e-02 -3.2176541053382822e-02 -3.6879274954636054e-02 3.6572355065767087e-02 6.5302586001052459e-02 7.2234563512274350e-02 2.1022157749637313e-01 -3.0978267846457352e-03 -1.9709500517480327e-02 7.0730947166769503e-02 -8.0918619156461757e-03 -1.0395428687083338e-01 -2.5423147604632190e-01 -2.0485005013235752e-01 -1.4390548579341583e-01 -4.0438586261744347e-02 -3.5836688220340016e-02 -1.8473537332342951e-01 2.2433610969647261e-01 -5.5823793385345905e-02 1.0306608712067389e-01 1.2055065889693223e-01 -3.8957485565253587e-02 -1.5280081848535607e-01 -7.0081004784799927e-01 5.6988060630833434e-02 4.3042425572324267e-02 -1.1344813327343786e-01 2.4799623222572963e-02 1.2836829004046379e-01 4.8966965556341807e-02 8.1191044260559536e-02 5.8990207657125947e-02 2.1699592192669159e-01 -4.2671455392222737e-02 -8.1628128289518050e-03 1.8353095802814465e-01 -4.1065047401343709e-02 1.0651409900757342e-01 -1.5012701235726103e-01 -8.5315409134969725e-02 -4.9243444672638803e-02 -1.3611045281042250e-01 -1.2400102788720216e-01 -1.9149958227908465e-02 1.3891180535289545e-02 -1.0291993964629831e-01 -8.8169810849129143e-02 1.9505421563680164e-01 8.0727044523269370e-02 7.4886390740326880e-03 9.6007722261162609e-02 -2.0423848953648162e-02 -5.8024848835425734e-03 -1.2010119604778746e-01 7.9301550788046016e-02 -7.5251155612293397e-02 -1.8813850217262773e-01 8.2812232799021057e-03 8.9767299180701393e-02 1.3345931989050000e-01 -5.5732710601368848e-02 -3.7310223512876236e-03 -1.4394152483179057e-01 -2.5679236610344186e-02 5.7504161101372442e-01 -3.0055437631662663e-01 -1.4278339539769924e-02 -7.4349651341388989e-02 1.3968989669243559e-01 -3.5995097714256699e-02 -1.6965793361289100e-01 -3.5948733512494113e-02 3.3995385387916993e-03 3.5689008559345314e-02 1.0006001233104966e-02 -2.1828788045559810e-01 1.7312707363133456e-01 6.3928754248910324e-01 4.8833048253869787e-01 1.3971359086624857e-01 -3.3442826237290146e-01 1.7957181015907736e-01 -1.6883214923262904e-01 2.0897220131775204e-01 -6.8842489099571788e-02 2.2868174174009909e-02 -1.5469459611573150e-01 -1.5709606952302799e-01 1.3897360902652818e-04 -1.7996754687727792e-01 3.2697970773312018e-02 7.1652374476912514e-02 2.2414207358261985e-02 2.5981146524004946e-05 
      </Row>
      <Row Index="12">
        -2.0748775836029847e-03 6.4283095053063836e-03 2.2004086895269226e-04 7.2447122215132886e-02 -2.3039729453831057e-01 -8.1406090460572719e-02 -3.5840472128019107e-02 2.0109428644691143e-03 7.5352274547579104e-03 -1.1890151856396919e-02 8.4491216163757588e-01 -6.7720303455162889e-02 1.3296583276274618e+00 2.0523684243461376e-01 -1.1717882668140188e-01 -3.3308930454693481e-01 -3.2246066043691707e-03 4.1201701702236602e-02 5.1690874115618100e-03 3.5543901467340218e-02 5.7780452559196838e-03 -9.3091470564206719e-02 1.1490625202292777e-02 1.0157422883367055e-01 2.8804991621172199e-02 -3.6794995369933900e-03 2.9127745908911055e-03 2.7831686052416094e-03 2.9965809170757914e-02 6.8046611017507627e-02 -1.0645973393590433e-01 1.3024906475857706e-01 4.4745226802535946e-02 4.4319446515827490e-02 1.2356582017922779e-03 3.4794777850922297e-02 -8.8594340844712627e-03 6.9597806120525041e-01 -5.5998828540227974e-03 7.5026688963595123e-01 7.0687630109031008e-02 -3.0469270934210833e-02 -3.1686655863575525e-01 -1.6913751529458732e-03 1.9200315107223469e-02 -5.1974457379681827e-01 -1.2623307163356912e-03 3.1405606068562542e-01 4.2121132074876044e-01 1.7610615356702247e-03 -8.8040349854902999e-02 2.2178101233426506e-02 2.8889762728189168e+00 -3.6101784254375102e-01 -1.5546996933725021e-01 -2.9768578972144261e-01 6.1119831130388635e-01 -1.5699220565895449e+00 4.8379146034987008e-01 -9.3739696336759826e-03 1.8961387634047169e+00 -2.9931450026631223e-01 5.6647051975733187e-01 -1.1380628763750897e-01 2.1577021893505289e-02 1.2984357546160019e-01 -6.3046805543542828e-01 1.4077894486237599e-01 -3.6156412107032265e-01 5.3100806915359500e-01 -5.6879949296658161e-01 -1.2843928488787775e+00 4.3392850995219612e-01 9.3476248162050135e-02 -6.5391418675387758e-01 2.2419252593557659e+00 -7.3524703903025745e-01 -4.0591174716465339e-02 -4.6092775044918977e+00 6.9747943334130946e-01 8.3930716139407413e-01 -5.1806749584177814e-01 -2.0086348845058449e-01 -2.3526353086372653e-01 -5.9929052489722079e-01 1.4386334354992071e-02 -1.2611670913408674e-01 1.2408516654221229e+00 -9.0188450887880234e-01 1.4850070009030614e-01 -1.3646826140008622e-01 4.0971820699784589e-01 1.4255545027713853e-01 -8.8019240460231873e-01 1.2806726078449408e-02 1.1066484950142691e-01 2.4037780965735296e+00 -4.7971089089807384e-01 -1.8882369266378027e+00 -7.3265010431095345e-02 -1.7684991026484390e-01 -6.6550552306288924e-01 5.9391736496127190e-01 -2.8758797882447819e-02 3.0184041686823498e-01 -3.0339262006696677e+00 -4.8774178258046286e-01 2.5668340969396941e-01 4.9400764219728721e-01 -1.3792437834736193e-01 -4.7961641549079143e-01 1.5216250598522257e-01 -4.4221524986099436e-03 2.5065986590582456e-01 -4.2380731716041770e-01 -2.0482816404448743e+00 2.3071373229336207e+00 1.8701282029701938e-01 7.1722185048941345e-02 -5.9028381066694124e-01 7.5229208938846348e-01 1.7686446505428605e-01 -1.9140409182612811e-02 -5.3800046065433726e-01 4.7603634213720714e-02 2.4557262329243634e-01 9.5963324608511325e-01 -1.9369884636906093e-01 3.8712046147492902e+00 -3.0215309781687729e+00 4.5860529066894563e-02 4.2235504165585027e+00 1.6353979134030872e-01 1.8476106739206517e+00 3.0950637609288965e+00 1.7501064003850353e-01 -1.0484206884367686e-02 5.0839107474783525e+00 2.4904477289402864e+00 2.3697771368195151e-04 6.0994764662130878e+00 -2.1429083150182202e+00 1.0885996656773031e-01 -1.2069938287747002e+00 1.0964475276484958e-03 
      </Row>
      <Row Index="13">
        -1.8516707739272061e-02 -1.1674428931876224e-02 -2.6041763189289233e-02 1.0185496391523095e-01 1.2201709325587395e+00 -7.3840537052985267e-02 -9.1592365645118967e-02 1.3896391894153162e-02 5.2503193657874730e-02 -1.9743000299475979e-02 1.3866431989951578e-01 3.3518991505542600e-01 2.0523684244702925e-01 4.6445658240221945e+00 -1.2709871201296180e-01 -5.2826830504778799e-01 5.6791836165578431e-02 3.8008920314948701e-02 1.9419881844171087e-03 2.2849588772034654e-03 6.9996012485463305e-03 -5.2717191281382733e-02 -3.7090257140178712e-01 -1.1440557200657168e-01 2.5197933351451027e-02 2.2069201438934261e-03 -1.0802916623515643e-02 8.9259021957785456e-03 2.0120379583102584e-02 1.6198030935068022e-01 -1.5887057029266766e-01 -1.2042843459941042e+00 8.5162394142169140e-02 8.8799781264472397e-02 -3.7673741332664296e-03 1.9806395876750871e-02 -2.6730181185491642e-02 1.0382565302940933e-01 3.7216759384427145e-01 1.3313457324462949e-01 4.1964572151909403e+00 -2.3999182355903748e-01 -5.0661527514438542e-01 5.7757216741324835e-02 3.4784734202598984e-02 -2.1559788663940282e-01 3.1171323635254522e-01 3.1670358993147268e-01 -2.1935619781653853e-01 6.4205710876115265e-03 -3.7365441348020367e-01 1.3175385947320600e-01 4.2171908946110204e+00 1.1752691736937442e+00 -2.0777856184498519e-01 4.8387917926976015e-01 2.6667691485940614e+00 2.0482200104780338e-01 2.7164286482194960e-02 -2.7261406581425054e+00 -9.5839307760132120e-01 3.3901583904713295e-01 8.4102533723169781e-02 -6.8906243628919961e-01 1.8856873735043372e-01 -2.5797684783299024e+00 2.2973092989226673e-02 2.7741206731613965e-01 3.7525790988601404e-01 -6.3962643954513432e-01 -2.8543825881205187e-02 1.2116488739259825e+00 5.9186267523005620e-01 -8.9617431974658113e-01 -1.5801448314599242e+00 -1.0795035838698921e+00 -1.3884290819254219e-01 4.4659937147706916e+00 1.3068701954418342e+00 5.6189947949503183e-01 -1.9770144083791144e+00 -1.2667747414836761e-01 1.0116062121405522e+00 -1.0288707940460480e+00 9.7890846439136903e-01 -3.3857713180022947e-01 -1.1374783889478661e+00 -1.4199566386054710e-01 -3.5347079244837321e-01 -9.6105822882553427e-01 -8.2032122488195780e-01 2.8061750907689398e-01 -4.6739330629914377e-01 -1.4083817828278161e-01 -7.6052793073931882e-02 3.1012031379380411e-02 -1.1834295883249861e+00 -1.2909166441366995e+00 1.2493060471366781e+00 2.3607021494255381e-01 -1.5261945142311339e-01 1.8711931084015809e-02 -3.4241972066613552e-01 1.2197193070087578e-01 -7.3897706399214169e-01 2.8878984119191990e+00 3.7373914117894280e-01 -4.4166622893671326e-01 5.1724418976361708e-01 -1.7263601268519835e-01 4.6081916633223419e-01 -6.2763588407216631e-01 -2.0066693061527068e-02 -8.1516724711224509e-01 -3.3078747174187395e-01 3.0201263544450971e+00 -2.0197334138404619e+00 5.0666306621797330e-01 -4.7116272845728258e-01 -3.4933493107677052e+00 -1.2660125173121481e+00 3.0646244789282157e-01 9.5644000668874607e-01 -3.8616551000753008e-01 1.5720009588553197e+00 1.0323609644334570e+00 -4.9094234990083585e-03 -3.9473187272355159e-01 1.6395668258368814e+00 -1.4281287030553580e-01 9.2147806031602927e-02 -3.3806707308053925e+00 -4.7259767842296725e+00 5.9210176613770127e-01 2.0292272349237379e+00 -1.5995860826940711e-01 -6.0203731555394935e-02 3.2641041676242715e+00 -4.3539441953823477e-02 1.7529678595768969e-03 -6.5808127064344610e+00 -4.3023416227736527e-01 1.2093956415656408e+00 -1.4808010379588715e-01 -3.9260526243523552e-04 
      </Row>
      <Row Index="14">
        -1.3324911171956270e-02 -1.5259113533952640e-03 -1.2999727419195563e-02 -1.4020460284096413e-02 -1.4961677381204262e-02 4.6497775110001804e-02 4.0040324740560386e-03 -2.0067021014240814e-02 -3.7185754921235247e-03 6.3519755001799376e-03 -1.2119994053466498e-01 -5.0272208062663928e-03 -1.1717882668738537e-01 -1.2709871200794914e-01 1.5227919247980357e-01 4.1023491330911446e-02 -4.9097771663629605e-03 2.0072340340638512e-03 1.7398688718140310e-03 -2.8550258490439599e-03 -6.7521115239835908e-03 8.5004346318175421e-03 -2.9829564019058605e-02 -1.5710151848929116e-01 -1.9688310579906582e-04 -5.4546421182884164e-04 -3.3113922410089678e-03 -9.6127715670064895e-04 -3.7456245896759239e-03 -3.4611852409159420e-02 1.6711322462518226e-02 2.5158805321268574e-02 -2.5543359909812241e-02 -5.9442982059550974e-03 -2.7507778730223587e-04 -1.3463291078434240e-02 -6.4031820106237383e-03 -1.0110483624649642e-01 -4.2518867022875717e-02 -6.1319684256749066e-02 -1.1409313802427518e-01 1.3005698006731087e-03 3.8335598399667520e-02 -1.5948799023117827e-02 8.8041818216712461e-03 7.1921095594286166e-02 4.7937811821395929e-03 -1.3462088620900620e-01 -1.0389008709671421e-02 4.1390607323105073e-03 -6.6280280901581112e-03 -1.3276377049348899e-02 -9.0328520350724284e-01 6.9218366935331413e-02 3.6995792628720908e-02 8.7475132545090872e-02 -5.9844518376640199e-01 2.8686687693620164e-02 -6.4449938308888996e-02 -1.0018850725093266e-01 -1.2418993763497981e-01 -8.5780991698901632e-03 -7.1301882732968405e-02 -5.1021092661688347e-02 -9.0628407517807513e-02 -1.3771616244238211e-01 -2.3096874590869981e-02 -7.0155530187615917e-02 -6.0937386509365005e-03 -6.7617427460371138e-02 6.5709896399660156e-02 1.3585670986383086e-01 -1.8178722638127351e-01 -1.2019271186091886e-01 5.6764552779079747e-01 -2.0165204651954205e-01 7.7179998732955113e-02 1.4067886260482276e-01 1.0060938237025067e-01 -9.7588938384253518e-02 -1.9429600451936652e-01 4.5617390871293545e-02 1.5696891497816098e-02 -1.5051683053493414e-01 2.4154346317308444e-02 3.4908375978679809e-03 -8.0907933690225579e-03 -1.1038046939301337e-02 3.8604155423016878e-01 -5.6400184282255607e-02 1.1660287764674909e-01 -2.4235664283885558e-02 -1.8691658012339213e-01 8.0125409822295018e-02 -5.5634461173127370e-02 4.3601336724833448e-02 -7.6800409775300879e-02 9.4332155681527641e-02 4.2617807171750421e-01 7.3165839699883516e-03 2.5136607503276079e-02 1.3441409954336708e-01 -7.8865223054778499e-02 2.2937771706283356e-03 1.1554996481557190e-02 1.5510022691261394e-01 3.8359073619916861e-03 -2.1056143202171751e-01 -1.1480316025759343e-01 1.0304401577298661e-01 6.6578213718213958e-02 -3.5921924498648825e-02 3.3559718628743407e-03 3.9570074428787849e-02 4.5825948185982741e-02 1.0134670564246795e+00 -4.3374042308667360e-01 -4.6613198017254748e-02 -6.9518176356005934e-02 1.1183185173886168e-01 -1.0907319346445937e-01 -8.6323443241237210e-02 -8.0477239923768693e-02 -6.3320555552356800e-02 -2.1797966402344637e-01 -1.4555095535534501e-01 -1.0619126203069285e-01 8.9221818561958738e-02 -5.3199638451289988e-01 1.3137611447691431e+00 9.9822753649165957e-02 -2.1839073284492327e+00 9.9142076591804307e-01 -6.0790984921544511e-01 -5.4107148316867160e-01 -2.6803387700297270e-02 1.8559149962508906e-02 -1.2135018334912204e+00 -6.1966235112600565e-01 -9.6812174668063915e-05 -3.3718517983725560e+00 4.1591053116033849e-01 -1.0436253881432260e-02 1.9232843173934536e-01 5.7685442837768084e-05 
      </Row>
      <Row Index="15">
        -4.7410636658074979e-03 1.8509585240987992e-02 9.2889131934748570e-03 -4.1380766907177846e-02 -2.2852774028937151e-01 2.8392943617129157e-03 1.1367713302069521e-01 -5.1968811363472679e-02 3.8400860605683984e-02 -1.9072259084975188e-03 -1.7121038163065445e+00 4.5296912869122602e-02 -3.3308930455233487e-01 -5.2826830504088507e-01 4.1023491342407792e-02 3.1348112864283411e+00 6.4485728608897452e-02 -3.9464030077637768e-04 3.5613382587695178e-03 -4.6683898275578298e-03 -4.0863818258177753e-03 3.7988730863997143e-02 1.3554144272220728e-01 6.2298489742225460e-04 -2.2401690611179026e-02 2.4382020462905829e-03 -5.8676103312792320e-03 1.2864122206770717e-02 -3.0157359745711671e-02 -1.5525473335640218e-02 4.9065047440458531e-02 3.0136587129109438e-01 4.0549978500364833e-03 -8.1613348107138176e-02 1.4534562858046607e-02 -3.3699982647433520e-02 -3.2812809576667767e-03 -1.3461266732591424e+00 1.5436364052722057e-02 -1.6424459279755124e-01 -3.6145325721364796e-01 1.8477773841656737e-02 2.9224052706813852e+00 2.6504464426141350e-02 4.5438424874177860e-02 1.3371374420972280e+00 -1.1548466602614083e-01 -8.5569952229734425e-01 -2.4183033478956073e-01 -1.5796917481921344e-02 -6.9521867400184234e-01 2.1590593406070618e-01 1.4403430008197748e-01 1.8901836128017360e+00 2.9246495434318220e-01 1.2475957963099462e+00 -1.0340948869272265e-01 2.3125599723422572e+00 -7.0686908421874084e-01 6.4351877290195325e-01 -2.4115591654471213e-01 4.1531924470320747e-01 -4.2863903273972631e-01 -4.6974320044411494e-01 9.3919069669512550e-02 -8.4268611827182149e-01 1.7196700293118923e+00 -4.1246337497350904e-02 1.0883940498998119e+00 4.0843966440995227e-01 1.4729172850468508e+00 1.6880265750820098e+00 -2.4279138213927345e-01 -8.8125125164009865e-01 1.7877239928119311e+00 -2.9942262099188088e+00 5.0737988827011682e-01 3.2692949838457980e-01 1.9770884235858013e+00 -2.7457288857173685e+00 -3.0277913034527151e+00 1.9830173776816373e-01 3.9229740683746672e-01 1.5453755367465893e+00 1.3879052534690952e+00 1.4134489668651895e-01 5.4574172848582417e-02 -2.8739184599215629e-02 8.8537854405920502e-01 -1.2480494974533831e+00 9.4245348455861189e-02 -1.7507069296417338e-01 -1.2709425617746244e+00 1.2915497313843425e+00 3.5439873903716515e-02 -7.6531376940993573e-02 -1.0796396239580690e+00 2.5767323364537140e+00 3.7526650706604889e+00 3.2850218761666677e-01 1.0132169233760755e+00 3.0119799692608349e+00 -1.8538098518946975e+00 -4.7869796955869637e-01 1.2808481275030550e+00 -9.1949914000467381e-01 -9.4105391270998151e-02 -1.5621526080609482e+00 1.7986220471982861e-01 5.6655088253037811e-01 3.0068256225013443e+00 1.0735191344607564e-01 -1.0478496374093260e-02 7.7063372676591646e-01 8.6286940046490168e-01 9.3478628391104079e-01 -5.0630734848615333e+00 -8.5443293670048881e-02 3.5996226243859120e-01 1.4069745885703933e+00 3.5973745166370863e-02 -4.8645078083340731e-02 9.7863077485741790e-01 1.4637295681097577e+00 1.9943049664375323e-02 -6.4387747670244122e-01 -1.3568410724254640e+00 -8.5504537997095831e-01 -1.8550914476086760e+01 9.3480048754662770e-01 3.6654578209478184e-01 -2.4628961306515659e+01 -2.9028664688606454e+00 -9.7165673384426849e+00 -3.7050228947011954e-01 -3.6458515139947595e-01 1.0009916038773564e-01 -2.3317528512438994e+01 -1.0096129952097173e+00 4.1217528738453314e-04 -3.5567609657067329e+01 2.9119336457027634e-02 -8.7037128810439013e-01 1.2325317263131708e+00 1.5316202567871445e-04 
      </Row>
      <Row Index="16">
        -5.6233667328769478e-03 7.9814915611159365e-04 2.5982291030524577e-03 7.1096592788263500e-03 -2.4279947543484247e-02 -1.4845357768271759e-03 5.8709391145950300e-03 2.5440731447182993e-02 1.6627394330519935e-04 3.0844676669770196e-02 -1.2416789149401267e-03 8.5498754590977288e-03 -3.2246065896823555e-03 5.6791836160059159e-02 -4.9097771714943506e-03 6.4485728597443587e-02 1.4976828226148947e-01 1.3037997444467176e-02 1.0179439308641513e-03 1.0575019471269816e-04 -1.2227717940757610e-03 6.3651208021541514e-04 1.0159099411558075e-02 -3.7836653061463534e-03 -3.0233493023898439e-04 -6.3469557276832345e-04 6.0888203764489050e-04 1.1168558484276475e-03 -7.4646898354445435e-04 -2.8923475981019022e-03 1.0116896500086655e-04 2.9435458543545095e-02 1.5516913763540530e-03 -2.7421340450260404e-03 -7.5245813678465889e-03 3.6725123327227961e-04 2.1728546744799307e-02 4.5886857206698176e-05 8.3304175833023193e-03 2.2527098512575110e-03 4.4831451381477053e-02 -4.6172051790441936e-03 5.9417341424007473e-02 1.4260485439673826e-01 1.2396208491353622e-02 2.0346490267604816e-01 -5.0283012480217021e-02 -4.7887349441856422e-02 6.4455512377346452e-02 2.7736380097422627e-03 -3.4550471582442684e-02 9.0667347963579475e-02 -9.3574818883934419e-01 3.5503186891543836e-01 -6.4223086208266361e-02 -6.1752409929661009e-02 5.5444606300113497e-01 1.6983232464132383e-01 3.8450618459501557e-03 9.9569901445594716e-02 7.6574339959832483e-02 1.9471372555731481e-01 -7.9963793758035862e-02 -3.0526866954220484e-02 1.3512122007363692e-01 -6.2476410925079856e-02 7.6900768584732368e-02 -5.7631341100734639e-04 -3.9773899411495728e-02 4.8060394952319146e-02 -1.4349315673812235e-01 -3.2843054927968754e-02 4.8603669747542613e-02 1.5825176149327527e-01 -2.7193098512441444e-01 -1.5807042664134047e-01 -2.3863330468436306e-03 -1.2927452863993327e-03 -3.7914920202205646e-02 3.1001321561729900e-01 -1.4938519543894457e-01 3.7750201979488973e-03 -2.3363868197031606e-02 1.0637932676356071e-01 4.9585622241828074e-02 1.3114064555809612e-02 -1.0241424978232778e-01 -5.9175844791794904e-03 5.7338628695896343e-01 -3.5522231321940995e-01 1.3021665708448177e-02 -1.9517314120793515e-03 -2.8280584757026300e-01 4.1612109794239564e-02 -1.6986668018622284e-02 -5.0167358081091934e-02 2.8711907047295267e-02 -8.0348516815880522e-01 2.5165955893023711e-01 -3.4025387603405510e-02 4.5817014579592079e-02 3.4300147890190158e-01 -5.7321848021537031e-02 -1.2568526060248324e-02 1.6015530102014808e-01 2.2666285081499232e-01 -2.2479551748120830e-02 -4.3846736305060874e-01 1.2599324502070242e-01 9.8778392349890831e-04 2.3518295033469805e-01 -1.9433188573491786e-02 -6.7147513764861250e-04 4.6678549702568295e-02 -1.2876177682646369e-02 2.3754752299485329e+00 -7.8920929483241464e-01 -2.5423716464531287e-02 1.0455252989100577e-01 1.7714774481273043e-01 3.4056901878998874e-02 -7.9151056787990504e-05 6.5395774188400257e-02 7.1994624279394737e-02 -1.3042896213886923e-01 -6.4169541545322173e-02 -3.2636532032249743e-01 -1.1868005803721615e-01 -1.2809775348368337e+00 -8.6765779128126108e-02 1.5801648346246797e-02 2.6774872139056773e+00 -4.2811459996964812e-01 -5.1273093400628911e-02 1.1831077746100305e+00 -8.3034653481623921e-02 -2.7780029108912693e-02 -1.6451979729374795e+00 4.5719122697506484e-02 -1.6826678297619568e-04 4.0261081497935685e+00 -3.1111355147236501e-02 2.6617348396989743e-01 -2.3778426977158762e-01 1.8528973117781837e-04 
      </Row>
      <Row Index="17">
        -1.8251813307306925e-02 1.0399180414861387e-03 -1.0982217296131476e-02 1.8578118095609836e-03 -4.6861353282238644e-02 -2.7625642474352723e-03 4.4668176435880768e-04 -1.4533107563799812e-02 -6.8127813456196184e-03 9.3175680133265517e-03 -1.1619819566579967e-02 4.5363135240573012e-03 4.1201701700141508e-02 3.8008920313814427e-02 2.0072340352445244e-03 -3.9464030081061679e-04 1.3037997443459350e-02 3.0335332369072723e-02 8.6499148228246989e-04 1.8294443621996354e-04 1.6307956686538682e-03 -3.6841579601725990e-03 -1.2931300390863577e-02 -3.0431388879900715e-02 -6.5089069764821296e-04 -8.5974424314404360e-04 -6.8241349038329147e-03 1.3159936517729593e-03 -5.9804623340160662e-05 -2.8866228433522160e-02 -5.7315178017970465e-03 9.1101613414381541e-03 8.6660801551769037e-05 -9.8719788262677634e-04 -2.3819364494124030e-03 -3.1295610196739328e-02 -7.1239236758743885e-03 -8.9963046245585352e-03 -2.8902245967732700e-02 2.5744822173474111e-02 9.5148929199914481e-03 -1.9825384506115679e-02 -3.8187539292213954e-04 2.6063752080196199e-03 3.2453451217061731e-02 8.9752301352929609e-02 -4.1773716443773701e-02 -1.0413058864202424e-01 5.7761170377419978e-02 6.9993117947695872e-03 -6.3893881017811252e-02 1.2863154414868145e-02 -4.4660785674356232e-02 7.9795269832156401e-02 -2.9677635381804009e-03 3.6880140183074700e-02 -2.6568168000260659e-02 -5.8133529723942270e-02 -2.2477136100973213e-03 -2.0321141302836954e-01 1.3412793595306444e-01 -8.3871955980999613e-02 -7.7883979584314367e-02 -2.3511935060869973e-02 -7.7743709324129051e-02 -1.0939549416751657e-01 -4.3651658377843738e-03 -7.3369971454720032e-02 -4.0869219258935573e-02 5.7588075067319611e-02 -4.4323696721785169e-02 -5.0977669432433828e-02 1.3703486120343361e-02 -3.0052657625465357e-02 1.1214828683796818e-01 1.3419775535636075e-01 -1.8643649569105806e-02 3.7783077958873540e-01 -2.6993793295837182e-01 1.6987485859218981e-01 -2.2109204406403835e-02 -3.3401636684175784e-04 -2.8871215870045774e-02 -7.1571759179968733e-02 -5.9053625004566457e-02 4.1578779833151489e-03 -1.6307782873353169e-01 4.8980600612876554e-02 1.8146025436284871e-01 -9.8246843580090101e-02 -2.2745803807639770e-02 -4.3472270324380641e-02 -1.1918794757013396e-01 -6.6097412104472300e-02 -4.2257309648749158e-02 -7.6051739111628380e-02 1.1986557441880825e-01 -1.6303180487878943e-01 1.1405245054696452e-01 -3.9324228405705104e-02 2.8431218108923795e-02 1.6612231532654498e-01 -7.8030194947155407e-02 -1.0144663830621457e-04 2.6098089222866550e-02 -3.0020462427473082e-01 -7.3989897968602350e-02 -1.6925916813457098e-01 -1.3833159803600503e-02 4.4685563575328394e-02 8.2374181364850418e-02 -4.5773887522767745e-02 -1.7739688217572214e-04 2.5315924076985455e-03 -7.0165780998551489e-02 5.4900722053930484e-01 -2.3763530879944444e-01 1.1967663158037524e-02 -1.2852602249279338e-02 -5.5025122380423785e-03 4.9833053430703003e-02 -1.4512400042563112e-01 6.9061114419798411e-04 -2.0953830582509235e-02 -1.2002245189997457e-01 -2.9872911729749874e-02 -1.2857297341251295e-02 1.1479219051112388e-01 -8.8944035791116496e-02 -1.4240233037850669e-01 1.3515858889001797e-01 -1.4476963790150271e-01 2.4096701331437645e-01 -3.4693042832492960e-01 1.5165046862055878e-01 -1.7973626231705033e-02 1.0443238734211741e-02 -3.8211527099141518e-01 2.1637310918833788e-01 1.9202613760165694e-05 -5.6006416363404177e-01 -1.0879277659030408e-01 3.3773485363486060e-02 -3.9445525502119485e-04 4.3429401234828938e-05 
      </Row>
      <Row Index="18">
        -9.9767163573462065e-03 3.3281056440984753e-04 -8.6441494459872344e-04 2.8818472045648693e-03 -4.9760788325919486e-03 3.3871930990166644e-03 -5.7721224468941859e-04 -3.6307431981119909e-03 -1.5860980467809877e-03 -6.9019395658223765e-04 -1.8991884698215202e-03 1.1618718803854721e-04 5.1690874128195070e-03 1.9419881836216244e-03 1.7398688714755257e-03 3.5613382575608084e-03 1.0179439306021096e-03 8.6499148234745935e-04 2.4862381869581347e-03 4.0139156689977633e-05 -1.1796808293104456e-03 -4.8436493771610202e-04 -1.2466387127486830e-03 -2.6022909236152253e-03 -5.0467027881950441e-05 6.3698158286945583e-04 -2.0214404177585450e-04 3.0117352212774146e-03 -7.2660610441464208e-05 -8.8136718469004915e-04 -1.5769429695410596e-03 1.5890611237566474e-03 -2.7694704331356068e-04 3.8115035921175720e-04 1.0437251046176675e-04 -1.7651181650465571e-03 -7.3536822074152363e-03 -1.4197390130637744e-03 -2.2918525108751816e-03 4.6087719447474428e-03 -1.3329243321387662e-03 1.5202151108973563e-03 2.8232444449830226e-03 -1.0204487449978370e-03 1.0919854733449368e-03 4.2905381964670249e-04 1.9847375719288908e-03 2.5561515861781552e-02 -1.5548567809568306e-02 2.4993356704827788e-03 7.6028755089669236e-03 -1.1507342074453359e-02 1.5040283293934242e-01 2.3205718745046365e-02 -1.0079238188224888e-02 1.6336798966419489e-02 -4.8431427703515065e-02 -2.5451596698549614e-02 -7.0231072405214305e-04 5.1766258574981426e-02 4.8298651930437940e-02 -2.3534503455485963e-02 -3.9112888160045989e-02 -5.7227391405264713e-02 -3.4318051700212682e-02 1.8861535185231575e-02 -3.8199263620396648e-02 -6.9353088453976038e-04 9.0304843978190521e-03 -1.3854503584662723e-02 -1.9220851915759049e-02 -3.6243266992567073e-02 2.4389325817108683e-02 -1.6232051715342595e-02 -2.9047692545996789e-02 7.5368520487883742e-02 -4.1263871809590598e-04 -7.6071628402896024e-02 -6.8027846357288618e-02 3.4239505603109156e-02 7.4074346773003341e-02 -4.7434940185591877e-02 -1.9480894787908501e-02 9.7538388542457305e-03 -5.7111673854237370e-02 2.1716436561706105e-03 8.8600886771779529e-03 -5.5815111054099585e-03 -5.8685093694122370e-03 -4.7956788380937049e-03 -7.2840844945419739e-03 -1.2480620184486982e-03 2.1892274081453451e-02 -2.6711570560119774e-02 -2.3221017804065129e-03 1.1848041433611060e-02 3.1795812074447656e-02 -1.7819381481480774e-02 -4.1646607672142545e-02 8.0406268899570893e-03 1.0447244031458129e-02 6.7418376124853546e-03 2.4308611171787002e-02 -1.1057485826135580e-03 -4.3088986066778502e-02 -5.8731868827423220e-02 -7.3756443387393185e-03 5.6179863288849420e-03 -1.8868899233389039e-02 2.2541643871118625e-02 -3.0029231158150673e-02 4.3551664235596081e-03 5.5222346332968117e-05 -2.1117735340145629e-02 -4.5722624694094971e-03 2.3685014320125670e-02 3.3347857175666316e-02 -4.7467763874966956e-03 2.4455180092172804e-03 -3.2449211803226324e-02 1.7950821051622632e-02 -1.0528042989390632e-02 1.3202617577234923e-02 2.2439577331866828e-03 1.0785399682758975e-02 2.2312665728745219e-02 1.9027188593518089e-02 1.7324815471212597e-02 -9.4577298686131892e-02 4.0860985006645201e-04 6.6869990002913545e-03 3.5933262488172940e-01 6.2767567311988293e-02 -7.1998347935176496e-02 8.4390725365825148e-02 -7.1476016722349517e-03 8.1079297737721573e-03 -1.9406408930807564e-01 2.9211998818651819e-02 -5.8605508674600202e-06 5.4328433163957690e-01 -2.9180389992356996e-02 1.1827526591968927e-02 -4.1318195776669751e-02 4.9712603414904060e-07 
      </Row>
      <Row Index="19">
        9.4418471408415675e-04 -1.0520249141152543e-03 4.2229859489544084e-04 1.5659887818267370e-04 -1.0611843252197843e-02 -1.0140572891339421e-03 -1.9535874866158315e-03 1.5385733621532741e-03 -7.3701245231804825e-05 1.8093709166548002e-04 5.1744207164564932e-02 -1.1362280699581343e-03 3.5543901467366482e-02 2.2849588770732184e-03 -2.8550258489354365e-03 -4.6683898274011469e-03 1.0575019449683611e-04 1.8294443627964448e-04 4.0139156670329179e-05 2.1167327755942859e-03 -5.7473346972473048e-05 -2.4129564334974905e-03 2.8713807852422816e-03 4.1400646901098796e-03 1.9602956889635042e-03 6.6498651006084014e-06 4.1128420122785219e-04 -1.8056386983981423e-04 2.1430246145749733e-03 1.2035256414895566e-03 -2.1479067178214587e-03 6.4175054638569064e-03 -1.5244676773797788e-04 2.1226584393535075e-03 -1.0939737162610902e-04 9.1977724134480415e-04 8.9055812147916837e-04 4.2588967076712066e-02 4.1489325281869160e-04 1.6443150989616347e-02 -3.3332267065535283e-03 1.3218202083478056e-03 -5.0783600225206742e-03 9.4596699507243018e-04 -5.3576453438271884e-04 -1.2566946230115414e-02 7.8465517814958318e-03 1.4305883364670459e-02 2.3328785648002968e-04 -3.2447454188888939e-04 7.8562421633137612e-03 -2.3068925250359501e-03 8.9972433128503213e-02 -1.4157618470844669e-02 -2.5588354070000072e-03 -2.9176325352049056e-02 2.0832815372334636e-02 -5.0410438092016466e-02 2.5898035160668856e-02 2.8819295503007325e-02 5.6446846429191490e-02 -1.3398887861898190e-03 1.8078432993647128e-02 -9.8602568124567351e-03 1.3104750685543372e-02 6.2086078260638281e-03 -1.4719646352493156e-02 2.6886259626942291e-03 1.3145731438943663e-03 2.2542273032441482e-02 -2.3734558345027260e-02 -3.1212168681143140e-02 1.1571283754772050e-02 2.1786451247113099e-02 -5.6392374393493871e-02 7.6852962582574569e-02 -3.1379790952821597e-02 -4.1176815095887422e-02 -1.3597870699303619e-01 -1.8204587343682160e-04 1.7770761128528035e-02 -4.0991538962557722e-03 5.9288639247935945e-03 -1.4648846767604841e-03 -1.3477694982115960e-02 -4.6632896196581447e-05 2.5353717721168487e-02 5.2205000056404841e-02 -4.8792606662575032e-02 5.4394271465645731e-03 -9.3374560357365986e-03 1.4156999539401872e-02 2.4649752187365235e-02 -3.3692636411757550e-02 2.7256406204121983e-03 8.0080753352583384e-03 7.0878401555434456e-02 3.6978707456206406e-03 -4.9793751098672054e-02 9.4774914906781450e-03 -1.3232978517615528e-02 -4.4471863834732811e-02 2.4256445338137596e-02 -1.1363341237385660e-03 3.8195878099511367e-03 -1.1407288645118591e-01 -1.4070714093792624e-02 1.8110893051893756e-02 2.7459537161091837e-02 -5.3909017584558294e-03 -9.4820920841624627e-03 1.6350623667328101e-02 -8.0990820307789112e-05 7.8918993802016869e-03 4.0984349797463515e-03 -8.2875550945044882e-02 8.3622981558983317e-02 2.0487245212289645e-03 1.1374274563041714e-03 -4.1926114043354737e-04 2.3753077346736411e-02 3.2875116698015865e-03 -3.4575207091717213e-03 -1.1764193892339896e-02 1.3586650998937244e-02 1.3419231572645712e-02 -9.2177604058388263e-04 -1.9345064631777327e-02 9.5162353764460944e-02 -3.6524077094738122e-02 -1.4482174095118154e-03 5.0257323524858954e-02 7.2974807872203534e-03 1.0120930233390063e-01 3.8849173469949642e-02 -3.9139200774942562e-04 -2.8344668196958432e-03 1.2209147120181581e-01 4.0095597587310579e-02 1.7896027667631850e-06 1.3300078612200170e-01 -6.5258153339813413e-02 4.8799016774718701e-03 -2.2954577216106626e-02 3.1174675371161296e-05 
      </Row>
      <Row Index="20">
        1.2022916896584474e-03 6.4371909812264858e-05 -1.8110769145138959e-02 -6.0013551794591208e-04 1.2404286893740862e-01 1.1401367029919263e-03 5.2056069053517916e-04 -8.2853937294032065e-03 7.1916461476743739e-03 -1.8988074717701071e-03 1.6434684693829556e-03 -2.5590815064860436e-03 5.7780452542283830e-03 6.9996012498367349e-03 -6.7521115239681864e-03 -4.0863818248413992e-03 -1.2227717931031974e-03 1.6307956684512973e-03 -1.1796808292751019e-03 -5.7473346997548259e-05 7.6469687031042871e-03 4.3133620858752512e-04 -3.0415064262417781e-02 7.6810674512335832e-03 -8.1191357208642081e-04 -1.6055081995420412e-04 -1.8756454141038109e-03 -7.4886952886178172e-04 2.5922633886108523e-04 9.0139924128787730e-03 1.4893705970812085e-03 -8.0438653498230955e-02 -4.5213446412394054e-04 -5.8810256939442231e-04 -3.4776662222201632e-04 -5.4940595770109780e-03 -9.4022897593947462e-04 1.6435495862509794e-03 -1.1395984103844427e-02 3.2320322657799776e-03 6.1326033968828041e-02 4.6282302361811333e-03 -3.2628845326793214e-03 -6.0463130104269520e-03 3.4731282833374948e-03 2.1999676909862124e-05 -1.6500799379398471e-02 -1.1178627534166022e-02 -9.8100934913184622e-03 2.5317447347290335e-04 -1.2841558999931207e-02 -3.9612516721685871e-03 -1.9684678476644041e-01 -3.2003609782284628e-02 -1.7255727256747972e-02 3.7251139541834366e-03 9.6951819943457057e-02 8.0637827937467092e-03 2.6413792887573940e-03 5.1398248066087615e-02 -8.7388697429145415e-02 2.7097032529454675e-02 4.1854941740325696e-02 1.6985852122972614e-02 -1.6140572367350461e-02 -8.5601188610985007e-02 8.7337416038985802e-03 -1.2835730608730061e-02 4.5955304046285346e-02 -3.7998723640922751e-02 1.7553943574702718e-02 1.7244080757302632e-02 4.2146341753480712e-03 -2.0369944711294233e-02 -2.6003415158672000e-01 -6.9340914206562604e-02 -4.5147175611982837e-03 -6.4064031098991378e-02 1.2654340400680647e-01 -1.0339932146066147e-01 -1.5366747125043811e-01 -2.8756020650904726e-03 -9.6269995203590100e-03 -2.6515084667400324e-03 5.3599905453618896e-03 -3.7634699353430501e-02 5.2394396361759021e-02 -6.5409114305010715e-02 5.0699644427449050e-02 3.0744757271139969e-02 -1.3288148765492388e-03 -1.2262427887100757e-02 4.7074399666116935e-02 1.2913656303547107e-02 3.1939390684198390e-03 -2.2393010560260856e-02 -6.7615065218647685e-02 9.0384463007757571e-02 1.3855209348313435e-01 -2.1311764748752224e-02 -3.9252866624960216e-03 -1.1445235860020418e-02 -2.5836014214850024e-02 -2.3377630991968355e-04 1.8100099694645808e-02 1.2695635844298875e-01 1.1441768283794574e-02 -4.1992798574921816e-03 -1.6621822811481026e-02 -2.6643115464420879e-02 7.2770202304220290e-03 -2.1550780600702125e-02 1.2288994587758839e-03 1.2355775541309663e-02 -1.0813674229115814e-02 1.7765692643100007e-02 -7.6428841025596383e-02 -1.7291148802735939e-03 -4.7333699894874515e-03 3.3165721457123626e-02 -6.5599363988501538e-02 4.8351337364028772e-03 -1.4038088657587898e-02 -2.1037726735036046e-02 -4.3187129198637986e-02 -4.9096403299160277e-02 7.2743746672332660e-02 6.2198214238774266e-02 4.3081656842712412e-01 2.4453810354571490e-01 2.1312860804654880e-02 -1.4540075128129015e-01 1.3254050171439241e-01 5.1965329203907951e-02 -2.0325829764309150e-01 1.1654990535104793e-02 -7.0039965886354600e-03 3.3151438800956623e-01 -1.3006574791666223e-01 3.9269738170720085e-05 -1.5880903816348271e-01 1.0411295154986955e-01 -9.9749751384227876e-03 8.1646797999584894e-02 -2.1052119957797088e-05 
      </Row>
      <Row Index="21">
        2.8448343864942221e-03 -3.5702009664763759e-04 -8.4177968529826341e-04 -9.1929433141914353e-03 -3.3399872024914290e-03 1.0326458629368573e-02 3.6892419762996468e-03 1.8428407035448041e-03 -9.9601630334047748e-04 5.3161917719558686e-05 -9.6725458555460192e-02 4.1076548723958939e-03 -9.3091470564060350e-02 -5.2717191280555978e-02 8.5004346317606311e-03 3.7988730870377303e-02 6.3651208053445464e-04 -3.6841579601194297e-03 -4.8436493770380624e-04 -2.4129564334887271e-03 4.3133620844679893e-04 1.2687412731850083e-02 5.5367002509350820e-03 -5.6701150979561465e-05 -3.1897299880110294e-03 1.6158624511935366e-04 -3.4529357546120743e-04 -2.2596305460106589e-04 -2.9545382259754381e-03 -7.0140774042059140e-03 1.0802659992547346e-02 1.3896285601655628e-02 -9.2828677525022968e-03 -4.2537239182440113e-03 -2.4821227877672852e-04 -2.5936046983746643e-03 2.2167283545607604e-03 -7.9323154241311353e-02 -2.6175437619261922e-03 -4.8465304321031445e-02 -4.3498392083691759e-02 1.3959610221193337e-02 3.6219148735329998e-02 1.6850011835682559e-03 -1.9701073535523090e-03 2.0366657421059260e-02 -3.3386294889695056e-03 -3.2764240743047429e-03 -2.0342870463356848e-02 -7.6185290753032469e-04 1.8979483378255290e-02 1.0694095064374347e-02 -2.2870813087231576e-01 -1.8807271451912327e-03 6.5789177487916850e-04 -1.8386624768102024e-02 1.6407119492684336e-02 1.0909715711420973e-01 -4.8192373833469249e-02 2.1959129185721477e-01 -1.4446713076984416e-01 4.7149431900063599e-02 4.4347720883993691e-02 2.6533549354308433e-02 1.3090764045897367e-02 4.8582611920853405e-02 6.2398708888458998e-02 -1.4230004412157301e-02 7.6083404704067312e-02 -1.2834714125236069e-02 3.3499935703067973e-02 8.1657526976894310e-02 -2.7486466458069701e-02 2.0619696312831774e-02 -2.9429029965130038e-01 -1.8154165870278963e-01 6.3420790747303099e-02 -3.0185286332751560e-01 2.9058043703683423e-01 -1.2641387385903355e-01 -1.9425716486325054e-01 3.3233689218984480e-02 5.4732351273048896e-03 1.5932669786379627e-01 5.0997385226715750e-02 3.1808593608098927e-03 1.0997891612581165e-01 -7.7650144457773629e-02 4.0789580055186965e-02 -7.7247948537283034e-03 2.7477980280242162e-02 1.2634425750317202e-04 5.3730421259729849e-02 9.5888576461876568e-02 3.2750342416537469e-03 1.1579951310830464e-02 -1.2627305144601603e-01 8.8683595923953959e-02 1.9356571461340236e-01 -4.9259540118379366e-03 5.3308024400358645e-06 6.9370849502585125e-02 -5.0092445730824366e-02 -8.9064935396188430e-04 2.6658916897265503e-03 2.3427662621942791e-01 3.1143683229910180e-02 -1.0599571584548870e-02 -2.2706410886422355e-02 -2.4698976048713947e-02 6.9346288679974361e-02 -9.5040566612292071e-03 2.3694635103868947e-04 -9.0327664092858945e-04 2.0309731586296311e-02 1.2290224215013812e-01 -1.3840268651099161e-01 -1.2213583577258005e-02 -3.7052338320170686e-03 6.8754820749674872e-02 -6.3297280206674605e-02 -1.5258627407478638e-02 3.7313387177054743e-03 2.8268253549002302e-02 -7.5930523762424151e-04 -1.8329959270686376e-02 -4.3802511522305812e-02 7.4154502524097499e-03 -2.2802349897251820e-01 1.0931229062224969e-01 -2.9905930636563612e-03 -2.3224518193043542e-01 -1.8891481423114975e-01 -1.2309453851079399e-01 -3.6436453937354846e-01 -4.3202272364924535e-03 -8.9548852906678762e-03 -5.4874616524414666e-01 -1.3854631581054630e-01 -4.5616801405701408e-05 -1.1269997070536372e-01 1.1410446744718442e-01 -1.5485298302524082e-02 1.2327837257369463e-01 -7.9339335353612712e-05 
      </Row>
      <Row Index="22">
        -3.8725176529335520e-02 3.5675391218995024e-03 1.9617676987921723e-01 -2.4697429857507482e-02 -2.0982809358706067e+00 -2.2622374943575056e-02 2.3433248895115007e-02 6.3372808707363226e-02 -1.2932754573269850e-01 1.9588310941399609e-03 3.2466330915235111e-02 -2.1549929613476956e-02 1.1490625226715404e-02 -3.7090257141740102e-01 -2.9829564026854660e-02 1.3554144271767832e-01 1.0159099409662673e-02 -1.2931300388960208e-02 -1.2466387123639538e-03 2.8713807856888787e-03 -3.0415064264071937e-02 5.5367002508252350e-03 8.2698737547968326e-01 4.5788071502063515e-02 2.2650431633080004e-03 2.1805405458150962e-03 2.3702361215912668e-02 1.9317500336908267e-02 1.8878407083451946e-04 3.1924526792609390e-02 1.7673520764373805e-02 1.7354874223756012e+00 2.4807221519888900e-02 -1.1712886035395026e-02 -6.5895270880513279e-03 3.2435803141139558e-02 -2.4486204964299374e-02 3.1564989117169331e-02 1.5044499215439380e-01 -6.5699958502699086e-03 -9.2855548376885788e-01 7.8692139373109943e-03 1.3278818381848517e-01 4.7923013052847213e-02 -6.7984308874841998e-02 1.4056867503159523e-01 -8.2425125353636802e-02 6.9907040862560693e-02 -2.1046949843694984e-02 2.3458786753936027e-02 3.7758879049716587e-02 9.3935375396925480e-02 2.9604980657944870e+00 3.0790843754352909e-01 2.3711445608537471e-01 -6.1260679482013913e-02 1.0084447600553821e+00 8.0242523772809848e-01 1.7458797237513021e-02 9.3616542771834321e-01 -8.4462409294645144e-02 1.4939716317681223e-01 -4.2418662938169371e-02 3.3614082873616424e-01 3.8129919533333695e-01 8.1133067970523431e-01 5.1728298577701193e-01 2.8790294588011733e-01 1.7380725177241102e-01 2.6690167000936249e-01 1.6403437810519828e-01 4.7817018779281284e-01 -8.1730516377308798e-02 1.4493464547561960e-01 -7.6470622133175192e-01 -6.5767358703844681e-01 -2.4342270721943067e-02 -1.4733470473140793e+00 9.2689076832520989e-01 -5.7536841138038652e-01 -1.6855293648109460e-01 5.5321684976122398e-01 2.9502857324551546e-02 1.8101452176906405e+00 6.8466442574287090e-01 6.1026182587034772e-01 1.7575641352915083e-01 3.4737403659497401e-01 -6.9854854001066791e-01 2.6374378769096013e-02 1.2661332465206199e-01 1.3981733205330193e-01 -3.1887521925794460e-01 2.8461112393818894e-01 1.7717316876821793e-02 1.1333806200394414e-01 -5.5413161630371077e-01 5.6845846903648956e-01 -9.5282299037549589e-03 1.7596214863342424e-01 -1.6608623522731712e-02 7.2960987866956417e-01 -2.7764339997636545e-01 -2.4638966458688169e-02 -3.9219416515107186e-04 2.4776580454763855e-01 -1.5564145009148816e-01 1.6771249848969258e-01 4.9654319652052581e-01 -2.9054152755973750e-01 8.7078455415737577e-01 9.0400220438972223e-02 -1.0820478907326833e-02 -1.7742692699777271e-01 2.3900962388164895e-01 -2.1121826261644783e+00 9.7027949232628086e-02 9.1321039258965547e-03 2.5525753958670938e-01 -2.2243729965218878e-01 -2.4849753017764042e-02 -2.4380531213532908e-01 4.1526403451330218e-01 1.6672251534552235e-01 4.4260569954629192e-01 1.5677890368369418e-01 -1.5747750933283493e+00 -3.6073623358792706e-01 -4.9757063342711891e+00 -6.0346004411990195e-01 -3.5067862097886104e-01 6.2715276260782202e+00 -8.0916357010382978e-01 -2.7882741431304492e+00 -1.7250853348141963e+00 -2.0045098374758250e-01 -5.5126769063266662e-02 -5.3702989152217491e+00 -1.3439111766820083e-01 -3.5292106807728423e-04 1.0145994129886063e+01 2.7197679463997460e-01 -3.4447781249034670e-01 4.8425167190828677e-01 -2.5266140776845697e-04 
      </Row>
      <Row Index="23">
        1.6737628645812068e-02 2.5314028378103774e-04 3.8782735450866457e-03 -9.4841678046112335e-05 -4.3465375649566207e-03 -3.1152614750719884e-02 -2.1556853450143505e-03 2.8046776100468823e-02 1.6260291615179936e-03 3.3204626018677281e-03 1.4123429286676370e-01 -2.3585911478186880e-03 1.0157422883957422e-01 -1.1440557200944536e-01 -1.5710151848973658e-01 6.2298491630809368e-04 -3.7836653108633354e-03 -3.0431388878541292e-02 -2.6022909239776099e-03 4.1400646902481648e-03 7.6810674511567298e-03 -5.6701150761755224e-05 4.5788071494180488e-02 3.2114410548591349e-01 1.3816971117229619e-03 5.2477550726082178e-04 4.1491517240462182e-03 -9.8352630633111518e-04 3.4839920528891713e-03 1.5579668904034725e-02 1.1853813238470786e-04 -1.9227783732543503e-02 5.9883110281111485e-04 2.7315851884842958e-03 -1.4495636470794604e-04 7.9055569978338860e-03 1.6305743449367652e-02 1.1759583671550262e-01 1.6777381783668031e-02 4.8105131758187675e-02 -1.0027426818175952e-01 1.4054551344118243e-01 -9.0202336741990186e-04 1.2940455471007833e-02 -3.1019040272506730e-02 -3.5440636311108914e-02 5.6123965871659499e-02 2.6307421713342427e-01 -8.4704508260930553e-02 -4.5720997242579900e-03 8.6763332954142028e-02 1.4359305931429325e-03 1.0988863972789245e+00 -8.3931428107437034e-02 3.7309944593457656e-02 -1.7925881927070536e-01 7.1450333285942347e-01 1.4178048758337147e-01 7.6633840528800248e-02 3.2621435116116210e-01 -7.9646591136116204e-02 5.4477668825320791e-02 1.9656769739066932e-01 -1.5712963376027518e-02 2.2248856656138169e-01 1.8958872962961959e-01 1.5544215543693088e-01 2.7309622778492901e-02 7.8049783650082763e-02 5.1065260577567537e-02 1.5374791697286050e-01 8.9698538750110968e-02 1.6819784704926823e-02 1.6744769940142354e-01 -3.9460126182553495e-01 -1.2216415946500779e-01 -7.3605930279972837e-02 -6.7273069650295836e-01 2.5526131906823046e-01 -3.5557382675209143e-01 -1.1316394668976110e-01 4.1991313813064715e-02 6.3365393750242818e-02 2.2299288477859336e-01 1.5403392115418557e-01 -2.3015365067618754e-03 2.5171414182140012e-01 -5.5329197002435743e-02 -4.7921326111598517e-01 1.5748437407319807e-01 -3.0805651688605828e-02 9.5722321586018747e-02 3.2802973363929189e-01 1.2075930819230421e-01 1.5774869292017957e-01 1.2261995288242264e-01 -1.6905493438429314e-02 4.3397796363858920e-01 -1.8026572610605135e-01 6.7131831790795779e-02 -9.2120770873029570e-02 -3.7527397992206163e-01 1.2269315334610328e-01 -1.4488333133402928e-02 -3.0425930029967838e-02 7.9126069994094383e-02 -5.4092939977331556e-03 3.1467868545668448e-01 2.6504533104354472e-01 -1.4620077475285798e-01 -5.8817954165559821e-02 9.7855676006381676e-02 -2.1916916745386497e-03 -4.7513975861226243e-02 1.1301327849493892e-02 -1.5971025607207254e+00 5.2243473174544208e-01 -5.5255952606548392e-02 6.9463042885654663e-02 -7.1464168786039561e-04 4.4518146590696028e-02 5.7773763890433656e-02 1.7561162630833002e-02 8.9911495997992197e-02 2.2136709076238847e-01 9.5879032400325734e-02 -6.8963262250434698e-02 -2.2242654460612021e-01 5.4434310707473743e-01 -1.2651470211249398e+00 -1.8159661709316482e-01 3.0469874430737187e+00 -1.0084559755991260e+00 -4.1881316686776543e-01 -8.3154275549619439e-01 -5.3658492116930440e-03 -5.2019419391251945e-02 2.0345014522169040e+00 3.6201728354439811e-01 -3.3526377239100611e-06 5.0854010638400258e+00 -1.8264296773714117e-01 -1.8851041213820188e-01 1.5912979692630547e-01 -1.9445716999955706e-04 
      </Row>
      <Row Index="24">
        3.2227488846918581e-04 -1.5529815230332358e-03 1.8535320758364248e-03 1.1958738324911791e-03 -5.5542826903657860e-03 -1.8280851356007703e-03 -5.4293147048149609e-03 2.6170574369836601e-03 -9.7377339727227079e-04 7.0774471849624336e-04 5.0092914829867462e-02 8.1146886095455014e-04 2.8804991621289081e-02 2.5197933351235602e-02 -1.9688310567110914e-04 -2.2401690611725218e-02 -3.0233493042545502e-04 -6.5089069757734398e-04 -5.0467027895865525e-05 1.9602956889570484e-03 -8.1191357207844803e-04 -3.1897299880740480e-03 2.2650431627836082e-03 1.3816971114806727e-03 3.8535681310181190e-03 1.9501148140104417e-04 6.7212569786457752e-04 -2.0036569448615921e-04 2.3067028609017868e-03 1.2793709169898020e-03 -2.6497409768672063e-03 -4.0931909410795633e-03 1.0603797528308118e-03 4.6302420767292702e-03 -1.7124905346797663e-04 2.5873592133766459e-04 8.0229505567994130e-04 4.0561986710755324e-02 3.2255921045249124e-03 1.3919014699029746e-02 1.3572661179512840e-02 -1.1298935839543719e-03 -2.2625025511058532e-02 1.1811766323239908e-03 -1.7349670181921316e-03 -1.6701657396869289e-02 1.8244471360110440e-02 2.2959681646552519e-03 2.7587123814033776e-04 -1.2473584116530858e-04 1.8146395628773692e-02 -6.2227544813034576e-03 6.4161306088046571e-02 6.9325651831778148e-03 -1.9392964982927864e-03 -2.4818517889285439e-02 -2.6971905300137238e-03 -9.6760981840496321e-02 2.3797597661754478e-02 2.0790381185241538e-02 9.3495220140947036e-02 9.6884324696372842e-03 1.3956857092412567e-02 -1.9826432152625210e-03 2.3046974177591942e-02 -2.9514998363499769e-02 -2.8410108545935165e-02 3.5459705893278889e-03 -5.6700037838887090e-03 2.5620573799851828e-02 -3.0012739252930146e-02 -1.5588751477900051e-02 1.6836147324836438e-02 1.0055021954070788e-02 4.0546131236224629e-02 1.5436789749357144e-01 -2.6127572612443022e-02 -1.8943234957173385e-03 -2.0391135828735316e-01 2.6918623580209505e-02 -1.8018147766639091e-03 1.9812884946244655e-02 3.3679411926761896e-02 -3.9500536832128307e-02 -2.2232554512089275e-02 -2.9502470038009474e-03 2.1244933377674694e-02 8.0094859318147055e-02 -1.0022584174033110e-02 -1.9443564799526608e-02 -2.5161480334309178e-02 1.4857330025796398e-02 -2.6473789985742239e-03 -7.4772282130740983e-02 3.9732658373072688e-03 9.3040506441791765e-03 9.2977331429353882e-02 -5.2107630211378569e-02 -2.2317616622475063e-02 1.9161870894889264e-02 -1.9884079097728203e-02 -6.2760691188356491e-02 5.7198085250068746e-02 2.7113807454342844e-03 4.6465357247783634e-03 -1.8133917524015031e-01 9.2441835986037946e-03 -9.1738578262886422e-04 5.1162129206233836e-02 -5.6998561109534163e-03 2.0198472398184203e-03 1.7051518765156919e-02 -2.6396610003866054e-04 -9.9838861858828690e-03 -3.0590286965604934e-03 5.7501762445657349e-02 9.7557198223807949e-03 6.1230033810596302e-03 -1.9082670518530520e-02 -1.5486414610736902e-02 1.6698170765366234e-02 -1.0504542483218268e-03 -1.9409355899424535e-02 -4.2670341828836438e-02 5.1601228412526123e-03 -2.3751448183619295e-03 -3.7177740909879249e-02 -3.5033398227173100e-02 -1.0628206111635841e-02 -4.0391398227731898e-02 -4.3066658139367942e-03 -4.5442450914259927e-02 1.2379755624072993e-01 9.3581776260044824e-02 8.8773748641094344e-02 -4.4911469444958614e-03 -2.6909223470736095e-03 3.3960908329903949e-02 5.2709500164391625e-02 3.5718424393036026e-06 -2.1304466368347111e-03 -7.7996497266380221e-02 2.8101009750132046e-02 -2.5917793828621423e-02 4.0660818388212308e-05 
      </Row>
      <Row Index="25">
